tree
version=v4
num_class=3
num_tree_per_iteration=3
label_index=0
max_feature_idx=1022
objective=multiclass num_class:3
feature_names=center_1500 wave_2002.46 wave_2001.50 wave_2000.54 wave_1999.58 wave_1998.62 wave_1997.66 wave_1996.70 wave_1995.74 wave_1994.77 wave_1993.81 wave_1992.85 wave_1991.89 wave_1990.93 wave_1989.96 wave_1989.00 wave_1988.04 wave_1987.08 wave_1986.11 wave_1985.15 wave_1984.19 wave_1983.22 wave_1982.26 wave_1981.30 wave_1980.33 wave_1979.37 wave_1978.40 wave_1977.44 wave_1976.47 wave_1975.51 wave_1974.54 wave_1973.58 wave_1972.61 wave_1971.65 wave_1970.68 wave_1969.72 wave_1968.75 wave_1967.78 wave_1966.82 wave_1965.85 wave_1964.88 wave_1963.92 wave_1962.95 wave_1961.98 wave_1961.01 wave_1960.05 wave_1959.08 wave_1958.11 wave_1957.14 wave_1956.17 wave_1955.20 wave_1954.24 wave_1953.27 wave_1952.30 wave_1951.33 wave_1950.36 wave_1949.39 wave_1948.42 wave_1947.45 wave_1946.48 wave_1945.51 wave_1944.54 wave_1943.56 wave_1942.59 wave_1941.62 wave_1940.65 wave_1939.68 wave_1938.71 wave_1937.73 wave_1936.76 wave_1935.79 wave_1934.82 wave_1933.84 wave_1932.87 wave_1931.90 wave_1930.92 wave_1929.95 wave_1928.98 wave_1928.00 wave_1927.03 wave_1926.05 wave_1925.08 wave_1924.11 wave_1923.13 wave_1922.16 wave_1921.18 wave_1920.21 wave_1919.23 wave_1918.25 wave_1917.28 wave_1916.30 wave_1915.33 wave_1914.35 wave_1913.37 wave_1912.39 wave_1911.42 wave_1910.44 wave_1909.46 wave_1908.49 wave_1907.51 wave_1906.53 wave_1905.55 wave_1904.57 wave_1903.59 wave_1902.62 wave_1901.64 wave_1900.66 wave_1899.68 wave_1898.70 wave_1897.72 wave_1896.74 wave_1895.76 wave_1894.78 wave_1893.80 wave_1892.82 wave_1891.84 wave_1890.86 wave_1889.88 wave_1888.89 wave_1887.91 wave_1886.93 wave_1885.95 wave_1884.97 wave_1883.99 wave_1883.00 wave_1882.02 wave_1881.04 wave_1880.05 wave_1879.07 wave_1878.09 wave_1877.10 wave_1876.12 wave_1875.14 wave_1874.15 wave_1873.17 wave_1872.18 wave_1871.20 wave_1870.21 wave_1869.23 wave_1868.24 wave_1867.26 wave_1866.27 wave_1865.29 wave_1864.30 wave_1863.32 wave_1862.33 wave_1861.34 wave_1860.36 wave_1859.37 wave_1858.38 wave_1857.39 wave_1856.41 wave_1855.42 wave_1854.43 wave_1853.44 wave_1852.46 wave_1851.47 wave_1850.48 wave_1849.49 wave_1848.50 wave_1847.51 wave_1846.52 wave_1845.53 wave_1844.54 wave_1843.55 wave_1842.56 wave_1841.57 wave_1840.58 wave_1839.59 wave_1838.60 wave_1837.61 wave_1836.62 wave_1835.63 wave_1834.64 wave_1833.64 wave_1832.65 wave_1831.66 wave_1830.67 wave_1829.68 wave_1828.68 wave_1827.69 wave_1826.70 wave_1825.70 wave_1824.71 wave_1823.72 wave_1822.72 wave_1821.73 wave_1820.74 wave_1819.74 wave_1818.75 wave_1817.75 wave_1816.76 wave_1815.76 wave_1814.77 wave_1813.77 wave_1812.78 wave_1811.78 wave_1810.78 wave_1809.79 wave_1808.79 wave_1807.79 wave_1806.80 wave_1805.80 wave_1804.80 wave_1803.81 wave_1802.81 wave_1801.81 wave_1800.81 wave_1799.82 wave_1798.82 wave_1797.82 wave_1796.82 wave_1795.82 wave_1794.82 wave_1793.82 wave_1792.82 wave_1791.82 wave_1790.82 wave_1789.83 wave_1788.82 wave_1787.82 wave_1786.82 wave_1785.82 wave_1784.82 wave_1783.82 wave_1782.82 wave_1781.82 wave_1780.82 wave_1779.81 wave_1778.81 wave_1777.81 wave_1776.81 wave_1775.81 wave_1774.80 wave_1773.80 wave_1772.80 wave_1771.79 wave_1770.79 wave_1769.79 wave_1768.78 wave_1767.78 wave_1766.77 wave_1765.77 wave_1764.76 wave_1763.76 wave_1762.75 wave_1761.75 wave_1760.74 wave_1759.74 wave_1758.73 wave_1757.73 wave_1756.72 wave_1755.71 wave_1754.71 wave_1753.70 wave_1752.69 wave_1751.69 wave_1750.68 wave_1749.67 wave_1748.66 wave_1747.66 wave_1746.65 wave_1745.64 wave_1744.63 wave_1743.62 wave_1742.61 wave_1741.60 wave_1740.60 wave_1739.59 wave_1738.58 wave_1737.57 wave_1736.56 wave_1735.55 wave_1734.54 wave_1733.53 wave_1732.51 wave_1731.50 wave_1730.49 wave_1729.48 wave_1728.47 wave_1727.46 wave_1726.45 wave_1725.43 wave_1724.42 wave_1723.41 wave_1722.40 wave_1721.38 wave_1720.37 wave_1719.36 wave_1718.34 wave_1717.33 wave_1716.32 wave_1715.30 wave_1714.29 wave_1713.27 wave_1712.26 wave_1711.24 wave_1710.23 wave_1709.21 wave_1708.20 wave_1707.18 wave_1706.17 wave_1705.15 wave_1704.13 wave_1703.12 wave_1702.10 wave_1701.09 wave_1700.07 wave_1699.05 wave_1698.03 wave_1697.02 wave_1696.00 wave_1694.98 wave_1693.96 wave_1692.94 wave_1691.93 wave_1690.91 wave_1689.89 wave_1688.87 wave_1687.85 wave_1686.83 wave_1685.81 wave_1684.79 wave_1683.77 wave_1682.75 wave_1681.73 wave_1680.71 wave_1679.69 wave_1678.67 wave_1677.65 wave_1676.63 wave_1675.60 wave_1674.58 wave_1673.56 wave_1672.54 wave_1671.52 wave_1670.49 wave_1669.47 wave_1668.45 wave_1667.42 wave_1666.40 wave_1665.38 wave_1664.35 wave_1663.33 wave_1662.31 wave_1661.28 wave_1660.26 wave_1659.23 wave_1658.21 wave_1657.18 wave_1656.16 wave_1655.13 wave_1654.11 wave_1653.08 wave_1652.05 wave_1651.03 wave_1650.00 wave_1648.97 wave_1647.95 wave_1646.92 wave_1645.89 wave_1644.87 wave_1643.84 wave_1642.81 wave_1641.78 wave_1640.75 wave_1639.72 wave_1638.70 wave_1637.67 wave_1636.64 wave_1635.61 wave_1634.58 wave_1633.55 wave_1632.52 wave_1631.49 wave_1630.46 wave_1629.43 wave_1628.40 wave_1627.37 wave_1626.34 wave_1625.31 wave_1624.27 wave_1623.24 wave_1622.21 wave_1621.18 wave_1620.15 wave_1619.11 wave_1618.08 wave_1617.05 wave_1616.02 wave_1614.98 wave_1613.95 wave_1612.92 wave_1611.88 wave_1610.85 wave_1609.81 wave_1608.78 wave_1607.74 wave_1606.71 wave_1605.67 wave_1604.64 wave_1603.60 wave_1602.57 wave_1601.53 wave_1600.50 wave_1599.46 wave_1598.42 wave_1597.39 wave_1596.35 wave_1595.31 wave_1594.28 wave_1593.24 wave_1592.20 wave_1591.16 wave_1590.12 wave_1589.09 wave_1588.05 wave_1587.01 wave_1585.97 wave_1584.93 wave_1583.89 wave_1582.85 wave_1581.81 wave_1580.77 wave_1579.73 wave_1578.69 wave_1577.65 wave_1576.61 wave_1575.57 wave_1574.53 wave_1573.49 wave_1572.45 wave_1571.41 wave_1570.36 wave_1569.32 wave_1568.28 wave_1567.24 wave_1566.19 wave_1565.15 wave_1564.11 wave_1563.06 wave_1562.02 wave_1560.98 wave_1559.93 wave_1558.89 wave_1557.84 wave_1556.80 wave_1555.76 wave_1554.71 wave_1553.67 wave_1552.62 wave_1551.57 wave_1550.53 wave_1549.48 wave_1548.44 wave_1547.39 wave_1546.34 wave_1545.30 wave_1544.25 wave_1543.20 wave_1542.16 wave_1541.11 wave_1540.06 wave_1539.01 wave_1537.96 wave_1536.92 wave_1535.87 wave_1534.82 wave_1533.77 wave_1532.72 wave_1531.67 wave_1530.62 wave_1529.57 wave_1528.52 wave_1527.47 wave_1526.42 wave_1525.37 wave_1524.32 wave_1523.27 wave_1522.22 wave_1521.16 wave_1520.11 wave_1519.06 wave_1518.01 wave_1516.96 wave_1515.90 wave_1514.85 wave_1513.80 wave_1512.74 wave_1511.69 wave_1510.64 wave_1509.58 wave_1508.53 wave_1507.48 wave_1506.42 wave_1505.37 wave_1504.31 wave_1503.26 wave_1502.20 wave_1501.15 wave_1500.09 wave_1499.03 wave_1497.98 wave_1496.92 wave_1495.87 wave_1494.81 wave_1493.75 wave_1492.69 wave_1491.64 wave_1490.58 wave_1489.52 wave_1488.46 wave_1487.41 wave_1486.35 wave_1485.29 wave_1484.23 wave_1483.17 wave_1482.11 wave_1481.05 wave_1479.99 wave_1478.93 wave_1477.87 wave_1476.81 wave_1475.75 wave_1474.69 wave_1473.63 wave_1472.57 wave_1471.51 wave_1470.45 wave_1469.38 wave_1468.32 wave_1467.26 wave_1466.20 wave_1465.13 wave_1464.07 wave_1463.01 wave_1461.95 wave_1460.88 wave_1459.82 wave_1458.75 wave_1457.69 wave_1456.63 wave_1455.56 wave_1454.50 wave_1453.43 wave_1452.37 wave_1451.30 wave_1450.24 wave_1449.17 wave_1448.10 wave_1447.04 wave_1445.97 wave_1444.90 wave_1443.84 wave_1442.77 wave_1441.70 wave_1440.64 wave_1439.57 wave_1438.50 wave_1437.43 wave_1436.36 wave_1435.29 wave_1434.23 wave_1433.16 wave_1432.09 wave_1431.02 wave_1429.95 wave_1428.88 wave_1427.81 wave_1426.74 wave_1425.67 wave_1424.60 wave_1423.53 wave_1422.46 wave_1421.38 wave_1420.31 wave_1419.24 wave_1418.17 wave_1417.10 wave_1416.02 wave_1414.95 wave_1413.88 wave_1412.80 wave_1411.73 wave_1410.66 wave_1409.58 wave_1408.51 wave_1407.44 wave_1406.36 wave_1405.29 wave_1404.21 wave_1403.14 wave_1402.06 wave_1400.99 wave_1399.91 wave_1398.83 wave_1397.76 wave_1396.68 wave_1395.61 wave_1394.53 wave_1393.45 wave_1392.38 wave_1391.30 wave_1390.22 wave_1389.14 wave_1388.06 wave_1386.99 wave_1385.91 wave_1384.83 wave_1383.75 wave_1382.67 wave_1381.59 wave_1380.51 wave_1379.43 wave_1378.35 wave_1377.27 wave_1376.19 wave_1375.11 wave_1374.03 wave_1372.95 wave_1371.87 wave_1370.78 wave_1369.70 wave_1368.62 wave_1367.54 wave_1366.46 wave_1365.37 wave_1364.29 wave_1363.21 wave_1362.12 wave_1361.04 wave_1359.96 wave_1358.87 wave_1357.79 wave_1356.70 wave_1355.62 wave_1354.53 wave_1353.45 wave_1352.36 wave_1351.28 wave_1350.19 wave_1349.11 wave_1348.02 wave_1346.93 wave_1345.85 wave_1344.76 wave_1343.67 wave_1342.59 wave_1341.50 wave_1340.41 wave_1339.32 wave_1338.23 wave_1337.15 wave_1336.06 wave_1334.97 wave_1333.88 wave_1332.79 wave_1331.70 wave_1330.61 wave_1329.52 wave_1328.43 wave_1327.34 wave_1326.25 wave_1325.16 wave_1324.07 wave_1322.98 wave_1321.88 wave_1320.79 wave_1319.70 wave_1318.61 wave_1317.52 wave_1316.42 wave_1315.33 wave_1314.24 wave_1313.14 wave_1312.05 wave_1310.96 wave_1309.86 wave_1308.77 wave_1307.67 wave_1306.58 wave_1305.48 wave_1304.39 wave_1303.29 wave_1302.20 wave_1301.10 wave_1300.01 wave_1298.91 wave_1297.81 wave_1296.72 wave_1295.62 wave_1294.52 wave_1293.42 wave_1292.33 wave_1291.23 wave_1290.13 wave_1289.03 wave_1287.93 wave_1286.84 wave_1285.74 wave_1284.64 wave_1283.54 wave_1282.44 wave_1281.34 wave_1280.24 wave_1279.14 wave_1278.04 wave_1276.94 wave_1275.84 wave_1274.73 wave_1273.63 wave_1272.53 wave_1271.43 wave_1270.33 wave_1269.22 wave_1268.12 wave_1267.02 wave_1265.92 wave_1264.81 wave_1263.71 wave_1262.61 wave_1261.50 wave_1260.40 wave_1259.29 wave_1258.19 wave_1257.08 wave_1255.98 wave_1254.87 wave_1253.77 wave_1252.66 wave_1251.56 wave_1250.45 wave_1249.34 wave_1248.24 wave_1247.13 wave_1246.02 wave_1244.92 wave_1243.81 wave_1242.70 wave_1241.59 wave_1240.48 wave_1239.38 wave_1238.27 wave_1237.16 wave_1236.05 wave_1234.94 wave_1233.83 wave_1232.72 wave_1231.61 wave_1230.50 wave_1229.39 wave_1228.28 wave_1227.17 wave_1226.05 wave_1224.94 wave_1223.83 wave_1222.72 wave_1221.61 wave_1220.49 wave_1219.38 wave_1218.27 wave_1217.16 wave_1216.04 wave_1214.93 wave_1213.82 wave_1212.70 wave_1211.59 wave_1210.47 wave_1209.36 wave_1208.24 wave_1207.13 wave_1206.01 wave_1204.90 wave_1203.78 wave_1202.66 wave_1201.55 wave_1200.43 wave_1199.31 wave_1198.20 wave_1197.08 wave_1195.96 wave_1194.84 wave_1193.73 wave_1192.61 wave_1191.49 wave_1190.37 wave_1189.25 wave_1188.13 wave_1187.01 wave_1185.89 wave_1184.77 wave_1183.65 wave_1182.53 wave_1181.41 wave_1180.29 wave_1179.17 wave_1178.05 wave_1176.93 wave_1175.81 wave_1174.69 wave_1173.56 wave_1172.44 wave_1171.32 wave_1170.20 wave_1169.07 wave_1167.95 wave_1166.83 wave_1165.70 wave_1164.58 wave_1163.45 wave_1162.33 wave_1161.20 wave_1160.08 wave_1158.95 wave_1157.83 wave_1156.70 wave_1155.58 wave_1154.45 wave_1153.32 wave_1152.20 wave_1151.07 wave_1149.94 wave_1148.82 wave_1147.69 wave_1146.56 wave_1145.43 wave_1144.30 wave_1143.18 wave_1142.05 wave_1140.92 wave_1139.79 wave_1138.66 wave_1137.53 wave_1136.40 wave_1135.27 wave_1134.14 wave_1133.01 wave_1131.88 wave_1130.75 wave_1129.62 wave_1128.48 wave_1127.35 wave_1126.22 wave_1125.09 wave_1123.96 wave_1122.82 wave_1121.69 wave_1120.56 wave_1119.42 wave_1118.29 wave_1117.16 wave_1116.02 wave_1114.89 wave_1113.75 wave_1112.62 wave_1111.48 wave_1110.35 wave_1109.21 wave_1108.08 wave_1106.94 wave_1105.80 wave_1104.67 wave_1103.53 wave_1102.39 wave_1101.26 wave_1100.12 wave_1098.98 wave_1097.84 wave_1096.71 wave_1095.57 wave_1094.43 wave_1093.29 wave_1092.15 wave_1091.01 wave_1089.87 wave_1088.73 wave_1087.59 wave_1086.45 wave_1085.31 wave_1084.17 wave_1083.03 wave_1081.89 wave_1080.75 wave_1079.60 wave_1078.46 wave_1077.32 wave_1076.18 wave_1075.03 wave_1073.89 wave_1072.75 wave_1071.61 wave_1070.46 wave_1069.32 wave_1068.17 wave_1067.03 wave_1065.88 wave_1064.74 wave_1063.59 wave_1062.45 wave_1061.30 wave_1060.16 wave_1059.01 wave_1057.87 wave_1056.72 wave_1055.57 wave_1054.43 wave_1053.28 wave_1052.13 wave_1050.98 wave_1049.84 wave_1048.69 wave_1047.54 wave_1046.39 wave_1045.24 wave_1044.09 wave_1042.94 wave_1041.79 wave_1040.64 wave_1039.49 wave_1038.34 wave_1037.19 wave_1036.04 wave_1034.89 wave_1033.74 wave_1032.59 wave_1031.44 wave_1030.29 wave_1029.13 wave_1027.98 wave_1026.83 wave_1025.67 wave_1024.52 wave_1023.37 wave_1022.21 wave_1021.06 wave_1019.91 wave_1018.75 wave_1017.60 wave_1016.44 wave_1015.29 wave_1014.13 wave_1012.98 wave_1011.82 wave_1010.67 wave_1009.51 wave_1008.35 wave_1007.20 wave_1006.04 wave_1004.88 wave_1003.72 wave_1002.57 wave_1001.41 wave_1000.25 wave_999.09 wave_997.93 wave_996.77 wave_995.62 wave_994.46 wave_993.30 wave_992.14 wave_990.98 wave_989.82 wave_988.66 wave_987.50 wave_986.33 wave_985.17 wave_984.01 wave_982.85 wave_981.69 wave_980.52 wave_979.36 wave_978.20 wave_977.04 wave_975.87 wave_974.71 wave_973.55 wave_972.38 wave_971.22 wave_970.05 wave_968.89 wave_967.72 wave_966.56 wave_965.39 wave_964.23 wave_963.06 wave_961.90 wave_960.73 wave_959.56 wave_958.40 wave_957.23 wave_956.06 wave_954.90 wave_953.73 wave_952.56 wave_951.39 wave_950.22 wave_949.05 wave_947.89 wave_946.72 wave_945.55 wave_944.38 wave_943.21 wave_942.04 wave_940.87 wave_939.70 wave_938.53 wave_937.35 wave_936.18 wave_935.01 wave_933.84 wave_932.67 wave_931.50 wave_930.32 wave_929.15 wave_927.98 wave_926.80 region_cerebellum_left region_cerebellum_right region_cortex region_cortex_left region_cortex_right region_striatum_left region_striatum_right
feature_infos=[0:1] [-0.0735965438281284:0.13807110615437282] [0.00077441448418514853:0.12051795489753318] [0.00063680407512812262:0.2142716394502186] [0.00091125458200401401:0.25976135753008611] [0.00085474649309696786:0.25781064762661265] [0.0008334658495457864:0.2220613755319451] [0.00081728163232218062:0.19255945217092821] [-0.0029555469587656379:0.13915069034700103] [0.00091622231035261141:0.08404298567703937] [-0.035423839767457159:0.085526464497588925] [0.00075707662742426302:0.11464952604425846] [0.00082828887520485124:0.13436976724333638] [0.0012157860147383038:0.1386960572366138] [0.0010129886159878111:0.12925251872969601] [-0.036311022356948872:0.10614084853192014] [0.00077748131787187976:0.070902879782173064] [0.00056921142078229998:0.12744608660133341] [-0.008522328112355761:0.18531788985092384] [0.00069614598431177793:0.21835668957097731] [0.00088805736660129558:0.22878744022770095] [0.00086113287967001882:0.21575761032856575] [0.000955132639148988:0.1790661979873476] [0.0012405408531176599:0.17589919546933491] [0.001413449648308629:0.19111924041595604] [-0.035103636092296053:0.18523296458283603] [0.0012159815076637907:0.17501884983867244] [0.00096351916272080593:0.16022932264353712] [0.0010041102129570432:0.17044270530495381] [-0.0085434415233435253:0.170353263693373] [0.001714468392745073:0.15971225704128822] [0.0018029024396634414:0.14039147770310847] [0.0014961160246525348:0.11038515406887994] [0.0015472436659890009:0.091753256008080111] [0.0011824310461914038:0.096011158976289437] [0.0011678660333411855:0.098554040714604899] [0.00091921344576277294:0.12286787294680072] [0.0014198099933500669:0.13471055459029549] [0.0015388917038953909:0.13486576813058124] [0.0016523358051221025:0.12355169392873268] [0.0011900177991717004:0.099724877952668822] [0.0017385988303334754:0.073185187246894171] [0.0018570374788324218:0.063162711760824594] [0.0020330433110576189:0.064349227215226332] [0.0022338906401385829:0.063141184517804538] [-0.0053698476787155426:0.059392784546137424] [0.0021727651944723463:0.056843139299364291] [0.0021502437615027706:0.062668656732846745] [0.0020541028502637695:0.10095137979327551] [0.0025550522727923832:0.1271696057690555] [0.0020595421246304519:0.14109028465158324] [0.002009223092382207:0.14061269232400211] [-0.059329482628513272:0.12576133304727169] [0.0024837533877471972:0.14685741055793178] [0.0029785923146503149:0.25185032335697188] [0.0028637837327811374:0.32582324188261969] [0.0029090645326270408:0.35985665047403437] [0.0029383417354748738:0.34756515424547829] [0.0029186498673209947:0.2901005763330689] [-0.03989452605773508:0.22932540614107608] [0.0019475991691414835:0.1676753969382743] [0.0024510977267121065:0.14240389692996192] [-0.054809259796781216:0.17809703823611459] [-0.01532408516125538:0.20972961471934609] [0.0029876997817812651:0.21716625906788969] [-0.022695299485077234:0.20358744742760315] [-0.011560389526348814:0.16778284484632375] [-0.029925553201251103:0.10857696369384454] [0.0031663936224597365:0.15095780491135063] [-0.044158274588273726:0.18266475630942533] [0.0032398042966323313:0.19474362488293001] [0.0031109374320534237:0.19062717470833154] [0.0032115744346043044:0.19772906532472143] [0.0031091202410464644:0.18426324032784142] [-0.0043785312770108602:0.14772837129997074] [-0.015897653773607873:0.092007797788741255] [0.0027190893140599053:0.081397842060983369] [-0.0300670590466907:0.084847678039876695] [0.0038685319578247472:0.099119470677685395] [0.003600412927752648:0.10461527141439497] [0.0035783943029330557:0.10106264648501648] [0.0016372781038361528:0.11089411612747931] [0.0039865813121566611:0.13192868117078618] [0.004034823998696444:0.13776872447893565] [-0.0019836178193498293:0.12670373746867583] [0.0033906991551614042:0.11896317163874821] [0.003364813406701772:0.10803316763320703] [0.0035525819583106999:0.089988041545176964] [0.0036988751494666026:0.080010873784633715] [0.0034189331590616903:0.078724233345224562] [0.0037079698034519341:0.11917779923926421] [0.0035192300088101587:0.18858247908129835] [-0.035717398032930454:0.23276108784514479] [-0.039202383800512157:0.24899792938320281] [-0.084621870696619139:0.23690838945963089] [0.0037990278180874393:0.20049306985179993] [0.0041586623397860479:0.24223659763201613] [0.0041791892621533371:0.34945871044095345] [0.0038300426802914834:0.4098912446978859] [-0.12968606964228327:0.42265067544181772] [-0.0045676314423690641:0.38846783428242437] [0.0035990627129952753:0.3074935166903679] [-0.035644041126843336:0.3067209215707038] [-0.071951459913243934:0.37638308482259852] [-0.092951928618958485:0.40113470942965646] [-0.001439505657187872:0.38321231189680766] [0.0036044032735974901:0.33555889959373725] [0.0040618119382215805:0.41230759827420088] [0.0043150490813139326:0.43792941790736967] [-0.12684732617554564:0.41372786172093978] [-0.0012935526491244596:0.33984112621513857] [0.0035590777852270053:0.21666153781151762] [-0.01901745996706173:0.10724325260098205] [-0.067272375340651877:0.14324507073035447] [-0.027635021156461232:0.17974390537103277] [0.001044462558464628:0.19248356023582908] [-0.0090847548754203738:0.18024834749445559] [0.0032419503884761731:0.15519997183077003] [-0.01083765123136861:0.11002658788771448] [0.0016590209900866719:0.13763326308978671] [0.0029318071653056349:0.20361577442581533] [0.0030141392580212032:0.24346670243875865] [-0.003447569395712924:0.25465260280020663] [-0.0084953567810008394:0.25624718427402948] [-0.0038441667117426986:0.25389792141706263] [0.0023674287646410705:0.22073644914852253] [0.0028606833827096402:0.1590178599801057] [0.0026398220736342107:0.15054270907466125] [-0.00035957806844787545:0.1580373026902584] [-0.0021626640058907418:0.15657474228047333] [0.0029193034157562227:0.14491656490166557] [0.0029578945879958291:0.11788213355868259] [-0.04402221907241427:0.076528564456140424] [-0.013684381355480264:0.058949821359434516] [-0.00839143297359864:0.10455205573185629] [0.0036613648133774963:0.15873796735696202] [0.0031861208618457625:0.19195127049771507] [0.0030573046311199777:0.20600254555379374] [0.0033734400121431438:0.19816700271094184] [0.0034496284926519632:0.16994878821320925] [0.002655315331250217:0.12092149856952433] [0.0021625522289442211:0.05425449733220724] [-0.041004070266992459:0.051773204617029993] [-0.057235714571507182:0.047812602899083866] [0.0026976345591727914:0.048166226605203144] [0.0026358724938102761:0.1519008751000287] [0.0021408999615260258:0.2285976248072687] [0.0023480660065177141:0.27402144255372157] [-0.010207475152832428:0.28823867429907729] [-0.036846608856115376:0.271746733496468] [-0.040426303003262151:0.22465521742818853] [0.0020013848171143737:0.14735881993193248] [-0.0013918398196872254:0.18721152520584877] [-0.053660499986823748:0.22073515751680939] [-0.0033659036803739663:0.2313913293264194] [0.0015920625488877627:0.2181442671197501] [0.0019077023511856863:0.20787830747743796] [-0.0019783171012368013:0.17675792688436173] [-0.010109955465918728:0.16470674587248912] [-0.035907885844039325:0.1492431080081161] [-0.041131393742566573:0.11708577804055641] [0.0025472820250488355:0.14195493687212121] [0.0020295442408690442:0.17468612455904986] [-0.0067581078114704726:0.1959622268704482] [0.002237734793107933:0.20093466704570243] [-0.0077087691485137983:0.18562360908421574] [0.0016385625067936987:0.14978307473060498] [0.0027869907341777603:0.12207263589024735] [0.0034023175351206867:0.098036651871582003] [0.0030728729016014054:0.063277904723925263] [0.0028451072964172982:0.065998171602272379] [0.0021379469447100883:0.063364727123659564] [0.0022286864081958128:0.058027256940944884] [0.0024031296266980233:0.068993236438667851] [0.0020325687181630063:0.083574700374844768] [-0.0059050839207557436:0.090833494532592221] [0.0028052442998524035:0.098435740793612697] [0.0027627421322537729:0.12110464357031431] [0.0031682529400580851:0.13104553806800759] [0.0026563252625414167:0.12890859893271267] [0.0026712020991332477:0.11370139429775603] [0.0021817752121555773:0.085942562430006988] [-0.014855056376194657:0.078767087385143028] [0.0027632512256698374:0.068111488991388511] [0.0028514305370940791:0.06898894538347046] [0.0026445441860303166:0.12151205556652964] [-0.010298721600411793:0.15570589849883656] [-0.047258173997034691:0.1728636111338282] [0.002542388906586872:0.17258520356855542] [0.0023577006283711571:0.15446496183435499] [-0.013140848958723892:0.15618685749221489] [0.0024433967983057262:0.18750361480987296] [-0.0055949547491529533:0.20893603313811815] [-0.0032341431569268418:0.22607761925062189] [-0.0026897823572764128:0.21509764220581115] [0.00027092430912899212:0.17666231150351455] [-0.0066267231839165254:0.14505415166701677] [-0.04315594875201046:0.15703347796187631] [-0.0059718548825529799:0.15328061659900316] [-0.018323746901819496:0.13317565305795354] [-0.00742064075286584:0.19654579982546191] [-0.0013079869017687028:0.25695302521569652] [0.0019453299271801128:0.2817450885291965] [0.0019421759807098659:0.27188250862006591] [0.0020333436779141393:0.22911208912147757] [-0.057421674551248393:0.17340697357161811] [-0.040431280823773535:0.10275393009954198] [0.0024293496435880808:0.11000373637190981] [-0.047462279213145407:0.16823796746668018] [-0.0085333492612782204:0.20428898853931146] [-0.016145349792543989:0.2162698740297424] [-0.034417588233715379:0.2353005091755469] [0.0019423274671451773:0.2591734477544238] [0.0024402286961808877:0.28121363582633285] [0.0023441137974134396:0.26835860247749044] [-0.056102585803228584:0.31920465430029832] [-0.038809308055280774:0.3425159424151028] [-0.023733284327577344:0.326983214133657] [-0.0055315669633517863:0.27397645880134497] [0.0031685975391419832:0.18379595914100355] [0.002493396314255348:0.17569817729985551] [-0.022480309749246252:0.17693160773171626] [-0.0055992153299570758:0.25283782690559925] [0.0022747539645107421:0.30717245691403333] [0.0029778947500709663:0.32290771843862276] [0.0024775331742841905:0.29440052703176195] [0.0020931001571605954:0.22904512267818211] [-0.026127815177606983:0.13591820786535858] [-0.027558466541102451:0.1275144401621443] [0.0022252225314930737:0.14440987573760702] [0.0026103414257707311:0.15283257484623752] [0.0022512586095396834:0.15987237264111581] [0.0019978448527454618:0.18234218948550221] [0.0017776105032333983:0.18652775551837494] [0.0023414949098603927:0.17419691969048626] [-0.0078161905360719167:0.1899766140590966] [0.0022419828758842805:0.2288468069977441] [-0.018964257075442331:0.24159951487503781] [-0.021694597963530203:0.22851429162317385] [0.0028878608830374825:0.19012087734825625] [-0.0060211880373824099:0.15108947505390449] [0.0030271129209016763:0.14435350702997871] [0.0030784258522283917:0.14655966358383865] [-0.0066015581730404236:0.13833519157484597] [-0.028585452168711969:0.15050771154396822] [-0.00556677902478414:0.1660122019412168] [-0.012618834921644669:0.16385059428615134] [-0.015308457287210236:0.15573105347107272] [-0.00021090683356670106:0.18255428123246106] [0.0031735052371473496:0.18906239324128812] [-0.0032807192036354792:0.17591783676599584] [-0.00036987531854783793:0.14177913758471394] [0.0028263383632128581:0.12314610470682627] [-2.1686574507473737e-06:0.10642642639852097] [-0.031006140058648275:0.11578721761832163] [-0.026769859555606172:0.12000745118051517] [-0.012768688700358497:0.11434770170484586] [-0.0011200846511764942:0.13556103510509357] [-0.0089395805011627093:0.15330594695018784] [-0.044421998557477006:0.19235593119891251] [0.0037672296999890385:0.21114284175929771] [0.0036354265326717376:0.20790778266720317] [0.0037328050418535073:0.18547288850493338] [0.0033584665701227156:0.23790466375778044] [0.0034296191895639614:0.26122317400344286] [-0.016769201445951523:0.25691169428486804] [-0.0013891646493890688:0.22426838514969991] [0.0035268082143251546:0.16477772169505944] [-0.013925016693859451:0.14567323464110393] [-0.032076939258240657:0.13893818060468968] [-0.012998778424975094:0.11521793930397592] [0.0031748406646355427:0.085875452860495846] [0.0031575297447708835:0.10235021126500332] [0.0038102309600551759:0.11437963022704629] [0.0040851396117027663:0.11625714588327614] [0.0042224558297665896:0.10637921654326973] [0.0041545119915327201:0.1189043076574815] [0.0040622167039214251:0.12536946423675677] [0.004236526500359333:0.12005126733514326] [0.0044988426377446057:0.10254200768438879] [0.0046663320379779806:0.093377248128482762] [-0.10529375496499788:0.11636730172571894] [-0.0029042130546572528:0.13127242352490787] [0.0046017038056194118:0.16701637010683101] [0.0044956035143366027:0.2875137712497326] [0.0043813350261855287:0.36407745768909699] [0.0043912182935610172:0.39720256779280666] [0.005061270406986596:0.38497571146268594] [-0.028007908080730341:0.3295923009345591] [-0.00053642408145239309:0.23043350307438987] [-0.05785941762832536:0.13136227602098113] [-0.092374802085857216:0.15213727599108554] [-0.020773725759157546:0.20099489119030745] [0.005503603834637283:0.22620477694310354] [0.0059486449034664877:0.24707613503395895] [0.0059140134369074834:0.26853347029687541] [0.0058485987242889829:0.26188370837269631] [0.0053495475788623813:0.22584519591584395] [-0.010607887817651351:0.16133161978600463] [-0.0094342141203432022:0.074113334352019666] [-0.04959699306141057:0.067979493739368985] [0.00021530433304966942:0.07317134755764082] [0.0051501797534573169:0.12978015007368596] [-0.059095836428976686:0.18833113504486509] [-0.060970013019089747:0.22587312722117361] [0.0029560153068186627:0.23666119759228535] [0.0020872928397625084:0.24590600206249569] [-0.012777944842043891:0.3436728934606858] [0.0047365160695583917:0.39656893399400694] [0.0046028070901079719:0.40299066988011506] [0.0048219313729685976:0.36421538419614291] [0.0029436691844297526:0.27994918593685175] [-0.0003794710228097789:0.16164329640089836] [-0.024131640327923715:0.16403486122370575] [-0.072849582530596382:0.15060405135106814] [-0.0076759861189124624:0.12207659266538622] [-0.011877811808248255:0.09668904176822149] [-0.012581726370040349:0.18202746434368738] [0.0025812857120253779:0.24052995208740893] [0.0056604906388694745:0.2695733860233705] [0.0054616025657046258:0.26912659804788508] [0.0054842352712325465:0.2389721031745459] [0.0052499792102776452:0.19217263569863688] [-0.0053089094744772775:0.15971099315517084] [-0.022100912715360941:0.10516208903119419] [-0.021489382580411599:0.086818523358559566] [-0.017974385366250144:0.079833287609526279] [0.0024534101035508672:0.11795909657700489] [-0.013476697762924275:0.16540015233240479] [-0.0045921924877412061:0.19191671121192058] [0.0019697637107924265:0.19794764494636402] [-0.0069509651791965672:0.18373034215319983] [0.0054450218594960329:0.20109947202619505] [-0.0053496807908583873:0.20822560427742406] [0.0053365015133897955:0.26665166078191793] [-0.023073000463676097:0.32637850237532307] [0.0049792028776420088:0.34583552671551793] [0.005043296648962527:0.32335918040172923] [-0.015387509170183167:0.25997443880980803] [-0.024298514051799266:0.16147845090825166] [-0.010823701607922908:0.094664542737170898] [-0.0029680547272785602:0.093599144356185063] [-0.0065720707139563361:0.17115025618115251] [-0.024836854820747187:0.22492020184758058] [0.0060471202388432841:0.25282207027302817] [0.0054371349609180202:0.25277049885091618] [-0.0031545398031057473:0.22742140702306726] [-0.0017240408776546003:0.19200525111335714] [0.0054263023241907767:0.16847762397150948] [-0.0085014849017848605:0.16121550005142371] [-0.010703703285394271:0.13870572750159862] [0.0028323496592524257:0.18695114693744697] [-0.00054123590155504518:0.21979320542072106] [-0.02730929444522294:0.22646361411493238] [-0.0027432384116143895:0.20753184600531008] [-0.0031457775003216905:0.1624973655483391] [-0.0031193145497090645:0.13238164651655446] [-0.037891175998948159:0.17761369738070504] [-3.4239395859684281e-05:0.20085402643983344] [-0.0069058631718665608:0.20439426992820525] [0.0059526279983960562:0.18698813230239741] [0.0066459126951105129:0.2109985974439606] [0.007206153235244251:0.22389692407089931] [0.0070067440176259767:0.21498164066743505] [-0.0088799569129338601:0.18453979587137403] [0.00069729009973381792:0.13222367721618447] [-0.0051358373360656864:0.09481954193409059] [-0.036157872211205769:0.090478582068723071] [-0.0060017290965694685:0.097992747697276159] [-0.0046733848475979372:0.096841478413163665] [0.0069842352349029557:0.10014080216302704] [0.006172616828289808:0.16780779304436555] [0.0055368206245712736:0.219275964918658] [0.0057012299066277247:0.24363598486784993] [-0.006621052854762873:0.23929523373501682] [0.0064937211007027899:0.20709092683916341] [-0.0035416292027566215:0.14920926152594649] [0.0074205561583339345:0.10418595554383883] [0.0073669040701264963:0.12302071138663472] [-0.012977225896404638:0.12909246785562647] [0.0025880859759327768:0.12374395401561886] [0.0074110907772284903:0.10962348845385735] [0.00721289475504486:0.12316368919268186] [0.0044071433022236251:0.12519316703636837] [-0.0037409885631390799:0.11553435812835734] [0.0076433730276055309:0.094606771448188048] [0.007332470647769357:0.093387685389989747] [-0.029644915174774453:0.14398506021466634] [0.0071865072000391918:0.18206281080222225] [0.0074119909620801849:0.19895278046021658] [0.0039764019929080024:0.19508078239657753] [0.0070214896554642988:0.18840602699226655] [0.0072549913206471587:0.20736716654475271] [-0.0033942170053554836:0.20485704786905526] [0.0041254606674783669:0.18130115675761241] [-0.0022687285231971716:0.13657177794381684] [0.0082621753068347452:0.091088044903781376] [-0.019336018532344328:0.091344156262190959] [0.0028449353887634071:0.10219709843640609] [0.0084036219666625122:0.10133912373308877] [0.0085923159302234431:0.099716632949783598] [0.0085011081371819865:0.13476937287775478] [0.0078836263764277808:0.15482097811155521] [0.002621807185346531:0.16864423363982017] [0.0015291806002597705:0.17567115865661809] [0.00074969745955259369:0.17406913540508342] [0.0072390226886635536:0.16081535746679723] [0.0076526293005691731:0.13308179606438478] [0.0084991631827257639:0.077857538742846025] [0.0083853178420128672:0.089747132674951352] [0.0079624448041603572:0.11486360507444142] [0.0082153485860523741:0.13959658899295074] [0.0078088745796018582:0.15160642911504713] [0.0079844673858491064:0.15639277836250437] [0.0073878794784167394:0.15173075867890631] [0.0013395199268134653:0.1394028159597282] [0.0076538700906450107:0.11564257489562302] [0.0082180114549272251:0.091416954896218067] [0.0092186930393708642:0.087737223077455864] [0.0099005241566474961:0.081940004917422968] [0.010276367358769724:0.086630530464620339] [0.00073031670297630006:0.091570362445289044] [0.011559747685377512:0.095861568587860282] [0.011277998193818622:0.091336181079951895] [0.010618893884271339:0.10188937893028474] [0.010813547579551448:0.12621085065247523] [0.011243956685876534:0.1371493769907321] [0.011385014598553419:0.13904402582196912] [0.011216767240377042:0.12549157907503175] [0.011138432130216123:0.10117199095661955] [-0.00019943209641607178:0.10170504199474656] [-0.0091112384383795954:0.10766332071875905] [0.010698794228231933:0.10327061200230832] [0.010962912437200302:0.10520620034914185] [0.011675562637604837:0.16155295124778551] [0.010832966116580573:0.24713433509467389] [0.010209737117211792:0.29668931742156629] [0.010368741093006652:0.31120909646791811] [0.010720105044881714:0.29022009958730055] [0.011016208382174899:0.23515782349027875] [0.0047346719316248356:0.14867934037419589] [-0.0073208614326309776:0.071461845663697482] [0.011453580981131495:0.080067797244488162] [-0.011514861645131104:0.1049524298934249] [0.010215013336937395:0.12341714037028166] [0.0095256457783244059:0.12969722900213157] [-0.02216832132985792:0.12932409966779859] [0.012164618153291814:0.12973119656137236] [0.012684347986522897:0.11839602869647764] [0.012556889354553749:0.15100452991403757] [0.012908688312947128:0.19944715408413932] [0.01227099321510096:0.22903482146374518] [0.011950199109606614:0.24175794521765903] [0.012656867561518704:0.2116977712551836] [0.012883674451521327:0.20361777298551481] [0.011964747591942139:0.18298687570442088] [0.012034061666451564:0.14232381928604632] [0.011745748120136125:0.17661278802954974] [-0.011764298837873411:0.17513380804551501] [0.010974157778833824:0.15607545240041237] [0.0011236224114152566:0.13184627464299878] [0.0078537637826540888:0.13268903310291613] [-0.013211490720528142:0.14379387390043721] [0.010680366148420451:0.15712323028795455] [-0.0047989633504087244:0.17975279219850335] [0.010587032307754637:0.18576440965626639] [0.01055240489190718:0.17526092435620641] [-0.030972935289743611:0.17231248929126244] [-0.014475576181293777:0.16080777101329319] [0.0087068889026484519:0.13211696218185442] [-0.0023589549359330849:0.19029194726526474] [0.011541841771658347:0.24144391915806526] [-0.017191554449785502:0.26673365323257248] [0.011731331209816887:0.26429654356881827] [-0.0032064017982662979:0.23446368409649793] [0.013755612547901325:0.17956357705200579] [0.013479730999078817:0.21111371113750146] [-0.011831459929213963:0.23525275923002403] [0.013385152597043178:0.23669345150511775] [0.012589628984512996:0.21566674379226847] [0.011966174302051781:0.17646557863127968] [0.011557219033180681:0.19495553883955496] [0.00094693566728596085:0.19493827548013704] [0.0085690590583500127:0.17678315703161593] [0.012490431286673773:0.14048161441828214] [0.012712365663884128:0.1463805792020979] [0.012470630555873568:0.16822373507546792] [0.0095413294629058138:0.17573271753728445] [-0.011573243729250234:0.16632527103782338] [0.011071450602186117:0.16714033590502203] [0.010494433685754109:0.20433863130439206] [0.010764978893939146:0.24762309198895735] [0.0046630916179932914:0.30581161750547065] [0.01206520275926678:0.33045372402142287] [0.012833367947505791:0.32124748813469545] [0.012496270466508945:0.27731254619729928] [-0.045000703437330078:0.19796920785908909] [0.0078725147569005324:0.17717257524760663] [0.0042309879841550659:0.20086300601022225] [0.0043425225876162913:0.23179885307100501] [0.012859039154773403:0.31138145245881083] [0.012506487216135106:0.35376270369526552] [0.012205235559178651:0.35806277478384396] [0.012278193049579037:0.32503951685597299] [0.01262150363425377:0.25310278607665659] [0.012874323583338784:0.16259273673195407] [-0.02469557946841347:0.1480988689259515] [0.011434335572521357:0.11971155946129904] [0.013615851902831809:0.080023265769825089] [-0.0010575010765390617:0.078264568958796799] [0.013490370423105792:0.077227075236952755] [0.013577415028272786:0.1073951653403748] [0.013344217106027413:0.14019997900236167] [0.013361998030581787:0.1702038543747825] [-0.025267527393726966:0.19249594288315472] [0.013482490775519121:0.19733801509144597] [0.014421792861235598:0.20796978460340459] [0.014640047882494964:0.21251635378613362] [0.014990371351520005:0.25129548565095622] [0.01496135873219687:0.26645911686037332] [0.015745567635909591:0.2591878281021302] [0.013175009419198757:0.2273754061126089] [0.015254105580782114:0.19282962622616884] [0.015053286590839031:0.29453777252141772] [0.0089948870045741917:0.35759121875937538] [0.016526732138494704:0.37800074688814578] [0.0072461528314087063:0.35659747629200311] [0.018097707619925733:0.29610877782180733] [0.018868274874867568:0.22862959330573984] [0.019726433657974135:0.25676888614162696] [0.020844775959993914:0.27266547787479639] [-0.0066486715536435885:0.26468542972901593] [0.02181870465878347:0.25443968061767014] [0.022207501007255968:0.24383684727623187] [0.022786362373976968:0.21145787771908953] [0.022846702745940081:0.20172722176556149] [0.012997136154392044:0.20074166981686986] [-0.0070682786256888496:0.19064176354237386] [0.017120261546207556:0.19140058773099547] [0.0097348298484140911:0.21068080664449917] [0.01650209829129911:0.21305966510259056] [0.023447583987093488:0.2195028276530796] [0.022335072619559557:0.31017546139325697] [0.022389617972655061:0.36262905658339895] [0.02365111068847953:0.37421015113245437] [0.024142776871623726:0.34512644688410637] [0.023839303860817378:0.27564092629155684] [0.022616148681729797:0.16742436623208909] [0.022519058542679774:0.12617174053193769] [-0.010265902878176775:0.11934570829127422] [0.0096870897976162988:0.14643673554894765] [0.023721414277561876:0.15587651097616353] [0.024257154624819279:0.16891730201472396] [0.025047880053006368:0.16578484033132765] [0.016828857422989979:0.15275634171503211] [-0.0080631576729989565:0.15631454381836923] [0.0035041157699673194:0.17259881151421433] [-0.0014556019496213667:0.18287595182169153] [0.027999069638916237:0.24162052701924008] [0.028842049901637773:0.31603199348073857] [0.02981899791931272:0.35540278332934255] [0.029031369748951059:0.35948936055907887] [0.027119387189590994:0.32955295698276454] [0.024822499983180129:0.31287340180806639] [0.022540935582718215:0.27973511595262895] [-0.010820887361136799:0.21619513913856231] [0.0017158450605196439:0.21106885801283115] [0.01769875577328895:0.19196493168300041] [0.0065094845186898622:0.16001025241633463] [0.0060651946414271435:0.15232614225277252] [0.016046127345661253:0.17227035933541301] [0.016379638668324221:0.18768893601318981] [0.017171480956066073:0.18982198087739885] [0.017667660057736186:0.20871831201497498] [0.017891812373588358:0.24478700730468203] [0.017918172897186162:0.26444238746594095] [0.010125809722536044:0.26233065641595082] [0.015893165978816355:0.24078933970184638] [0.016173028586920778:0.20699386325338279] [0.015346613867283957:0.15016069595261722] [0.014014707987751571:0.16128087615093326] [0.012910512152014405:0.16365515309376594] [0.012281938509984791:0.15225288477857249] [0.011436795119925703:0.12641959591385776] [0.0043859172839895563:0.088668302137282995] [0.010840043530315275:0.078452475635023167] [-0.0022339619185709845:0.069976502216438238] [0.0099131456758087353:0.093015539656705115] [0.01012079947669986:0.1060894118273458] [0.01010416781961513:0.10899796250469544] [0.0099547527140967946:0.10450595213770753] [0.0089487207368445631:0.091224129005638963] [0.0082404227195172:0.086530861068488521] [-0.0032090239441263093:0.079728465652167929] [-0.024378060042007099:0.066039803178834983] [0.0067569096681463258:0.060227415068561996] [0.0064885478711488743:0.12601259579143356] [0.0069293740074337223:0.19790969187401888] [0.0059066823004286012:0.24315950563757593] [-0.019380256189544354:0.25845197459770008] [-0.023908081168085061:0.24646117870883585] [-0.015213425105524639:0.2064868834973804] [0.0010098601885777977:0.1369034355190791] [0.00517854716993588:0.1501622341063871] [-0.021569753846177816:0.20068130262794356] [-0.010015664308119055:0.22703316021843289] [0.0066303242436606185:0.23063174457607613] [0.0063554286228210523:0.20735617139484905] [0.0060826908861301146:0.16096870662877169] [-0.017451222259502758:0.15405128318692277] [-0.0053525619020783691:0.15957458967589006] [-0.032344445869963843:0.15010793349174206] [-0.0011648886212455147:0.12536219964781334] [0.0059906220503835733:0.086178517139365501] [-0.069074416003879285:0.11999484982018926] [-0.0094890741457399619:0.15430125947953244] [-0.003298500532153777:0.16645037494832948] [-0.017530742879162738:0.19501882952539148] [-0.0012366743260228178:0.24228437637091582] [0.0060350388122503386:0.26274619015779477] [0.0062961736476358126:0.25310178079214768] [-0.010780381891668677:0.21590929735601269] [0.0064253382180555017:0.18006719736867496] [0.00038663664906063623:0.17986080468998464] [-0.063658898119411014:0.16104806525299026] [-0.00059706918018450792:0.15180185629036] [-0.0020637363739816296:0.16109619493999233] [-0.0067462611689029246:0.16155951907915431] [-0.0095704630621321896:0.14944094416894249] [-0.0052332964180028885:0.13649316676359846] [0.0058790415904604112:0.13128397978534334] [-0.0083250636048043617:0.16014298017635722] [0.0055859461382323054:0.17214990814066236] [-0.0030092412553574584:0.16574605953323102] [0.0045665307364754727:0.14166225566002852] [-0.018519680664085846:0.10933392325365739] [0.0047311616362865428:0.091227588795890491] [0.005251786956457484:0.085771356080234687] [0.0025872929514940842:0.11861392825146305] [-0.0070850282957179303:0.13819541738799743] [0.0044946385722835639:0.1435503827356151] [0.0054443400266970879:0.13419598891344983] [0.0060787424654364609:0.11046144846889649] [0.0059309634518536717:0.085750061788831947] [0.0057530487486116997:0.10214034815930258] [-0.017975183640462529:0.10817805606324254] [0.005277424205164599:0.11530200853417748] [0.0039818069464703709:0.11253965581989941] [0.0037252053304664594:0.099721940748922225] [0.004573489308539039:0.088089717939214149] [0.0048855342249438573:0.085125426836571622] [0.0043689055681655365:0.10663412400052635] [0.0040793980865596333:0.12543377956070062] [-0.010292272856260651:0.12996343926446061] [-0.0012184479683513784:0.11773182204326266] [0.0055001802126583661:0.090979226633119664] [0.0056672402208025165:0.10803213720273229] [0.0053428293902993218:0.15970337287289102] [0.0056775874139211764:0.19229115771954622] [0.006017996995992792:0.20367965498294544] [0.0057896594469076124:0.19277058447693163] [0.0058433400288336731:0.16039786841312687] [0.0053576998123561117:0.10631551670880306] [0.0048656803822261655:0.06683698785343084] [0.0046463108352724665:0.063893640762106435] [0.0039916796440550009:0.066903228431387921] [0.0061491637307173191:0.1181124367863399] [-2.6918618180046837e-05:0.15333318736757975] [0.0050730656489546503:0.17028864902722785] [0.0049323140839527633:0.16963998670227712] [0.0056716920407117559:0.15304774461403584] [0.0057285442631213749:0.11812855057810956] [0.0053657399455000494:0.080347259003015259] [0.0052973094049623172:0.086530357621884726] [-0.0062555274918289936:0.085464414199456815] [0.0059831567116944359:0.077664261787433422] [-0.03425422459780271:0.062410521923982346] [-0.015122081897399109:0.065779746649833576] [0.0060377504190427004:0.077259242787665092] [0.0063180034910616679:0.11682410915188608] [0.0066805646118830459:0.14083050720149334] [0.0065269342793625442:0.14955705855351345] [-0.0038863113240396358:0.14294310558408854] [-0.011945405663525014:0.12152956384765586] [0.0066088824038770333:0.085291929971292313] [-0.0090716132785958782:0.075399119056992106] [-0.031556294841817045:0.09514057371463093] [-0.010942531423924533:0.10452234750533122] [0.0062975963882609277:0.11280532594857942] [0.0065081795003490489:0.11885645090796502] [0.0066268991268970982:0.13229061299057862] [0.0062755027152362431:0.1385257487433921] [0.0028002713725308443:0.14277182673436933] [-0.0058717233964253723:0.13560418260386969] [0.0052989304248275337:0.11748263262258603] [-0.009990503064744501:0.092131891873153765] [0.0070321247387133464:0.093498520747787764] [0.0061698121082322246:0.10302201346910657] [0.0067668202024848247:0.10341378530353737] [-0.033259272015777608:0.10873393838309135] [0.0084649108341502913:0.10446788400678213] [0.0069679963056527971:0.092639339305075688] [0.0095775331605249068:0.14199834611552384] [0.0050778309480209614:0.17470062651139437] [0.0080052951227222498:0.18898758997519258] [0.0089576315452291611:0.19579067576049666] [0.0074015052190483342:0.24798841176214978] [0.0084995682401658619:0.27150285110499472] [0.0083382684015375751:0.26729007741648153] [-0.02848276478918367:0.23244161710945305] [0.0078582035821823711:0.16988815217643147] [0.0084162328998084804:0.17404492503737173] [0.0088315877163323182:0.19316279881246459] [-0.015702220261157019:0.19112389289597803] [0.0080077890701580542:0.16751340477226928] [0.0079554119530632888:0.12385531900445824] [0.00787851395047659:0.12092926634084174] [0.0085168604264806366:0.13277643207205386] [-0.0037122566704691782:0.13054239383149605] [0.0089752431255256376:0.11587354647606785] [0.0088809936688746555:0.087392294156291794] [0.0090559973167867597:0.080604018853509735] [-0.0047347922781409172:0.087844733378573736] [-0.0015175280340863444:0.087816824050466646] [-0.011604564634836724:0.079643268496055991] [0.0076698355519194033:0.08073850204862637] [0.0070037071250049149:0.12907601530649729] [0.0074823795827982627:0.18547108904023527] [-0.018313539113620308:0.21883457120785246] [0.0080672792865091759:0.22664590556804953] [0.0086964479795522288:0.21193514157710522] [0.005945257576169578:0.17356342988694651] [-0.0061409254424309037:0.11775171241655578] [0.0073927005512934756:0.12385531584585997] [-0.015621291009726842:0.11804706278093122] [0.0064676437589162956:0.11079652078713211] [-0.0019360224392839785:0.11624077179980881] [0.0066900790130263021:0.10936409875254123] [-0.020270976836970028:0.090769668360478326] [-0.0037462129797319662:0.082111169415283944] [0.0064369490016934787:0.094021623786888942] [0.00636812341530119:0.097990470132727964] [0.0061470950426187219:0.092752191408309287] [0.0066245697473645759:0.10678030718541315] [0.0052617041487859669:0.11086750801021453] [0.0064844053830324447:0.10700292176001001] [-0.013324029473131124:0.092748767218124695] [0.0072164426029602937:0.071763191548326777] [0.00715875363066422:0.072751902976281882] [-0.00055725600306462939:0.10219840680035784] [0.0067977717046843094:0.12092360826264562] [0.0068982935842755375:0.1276238585510576] [0.0044943534539039565:0.12123724952246105] [-0.019959689697006171:0.10346106526648875] [0.0050911575304178752:0.074768967454148808] [0.0060249573350788363:0.12450238935911311] [-0.014311503176394007:0.16959190806896673] [0.0052127677385305944:0.19415515554939228] [-0.051629973486355958:0.19840931189782204] [0.0017233256530563054:0.18014033419957143] [-0.0033867751458321244:0.14146475960240354] [-0.020579765377735093:0.16167136809978555] [0.0013017065973781701:0.1982520044579103] [-0.03328124977812897:0.21253678895080103] [0.0051718987808828188:0.20482536957959974] [0.0050393141145299337:0.22340198035628564] [0.0020203976351569641:0.23131824458266734] [0.0053031590864373928:0.21674948531613036] [-0.047315816889484996:0.17678699811143966] [-0.029002894558622889:0.11057899110325642] [0.0051575549417612566:0.085488434172578495] [-0.024789565805596131:0.173563038534297] [0.00056686204535136904:0.23796773319756931] [0.0052450158997496658:0.27111844498402349] [0.0052458577142016054:0.27383117534247237] [0.0050153609414330695:0.2472848768589451] [-0.054025322360203479:0.191413056063687] [0.0043460392464004819:0.10320563520957053] [-0.0049710282822587335:0.11893428723974843] [-0.044061484580124509:0.18077451034361494] [0.0046502479089604448:0.21876866972663694] [-0.039538623137841129:0.23238820616813349] [-0.050255860762530011:0.22143100517408554] [0.0042561905182320753:0.18732044669577744] [-0.01758895206628067:0.14270322849076378] [0.0044423613471963044:0.18060124580537856] [-0.04724585382456685:0.19953753176924643] [-0.015946433857135369:0.21279486178005649] [0.0011309033992173705:0.20484048215267456] [0.005441661180967435:0.25105503055623524] [0.0050074424918933021:0.3375273910770013] [-0.034176243943849161:0.37801412828052733] [-0.047372545290986848:0.37360939843456176] [0.0049925134026962284:0.32211714990298962] [0.0051120927983913161:0.22560901346186596] [0.0052247461480099911:0.15022607867565579] [0.0051885316660431422:0.08941870767559848] [-0.080909463543521659:0.090009559613702328] [-0.0064867237851131548:0.082252612823147261] [-0.017242488421274377:0.081191352771303654] [-0.018162003832237116:0.078137210578321292] [-0.00388132233865375:0.085116739358897381] [-0.05309901403479457:0.10204074242927116] [-0.0046537952043745898:0.13686126467366638] [-0.017562751054200031:0.1728944594611839] [-0.0040939168665425499:0.19113966592294021] [0.0044656763248157021:0.19093593224186944] [0.0033608941708337461:0.2131494926055629] [0.0042908560769669918:0.24600575257845414] [-0.015073241624683429:0.25036837967062231] [-0.0071225620413827616:0.22814946059802607] [-0.011726243554751103:0.17825291798424686] [-0.05222793143966372:0.17283161348757464] [0.0047313729048651543:0.15302275794375084] [-0.034967239157966297:0.11455017136292842] [-0.0052259893079582157:0.059122307206426632] [0.0047726480774346941:0.050017342365010341] [-0.015249049296015752:0.049736528566324413] [-0.025268654913969929:0.052188831823934814] [-0.023849292474931671:0.053998959069930859] [-0.0024220616634627306:0.070928973291817729] [0.0044769104213286982:0.11410299939606385] [-0.019140108002142758:0.1421361701406437] [0.0031681484694239177:0.15503717118907759] [0.0047517465056641549:0.15177888433976017] [-0.0016029930238580304:0.13127146639266823] [0.00090055896824990796:0.16279360997352971] [0.0037492735272528976:0.19913565411445452] [-0.021526881233503718:0.21176138709839351] [-0.022482364293003557:0.20011261554002802] [-0.0029519627114835763:0.18170699996792647] [0.0036618845946023168:0.18132759367387435] [0.0049559912583318523:0.15764945687271736] [0.0048655211045947055:0.12444179071307088] [-0.01560429507875335:0.087756001004346981] [0.0047566864156240634:0.1028382494101631] [0.0045666908932306188:0.11218125039141555] [-0.034142531164034762:0.12731451575616931] [-0.0011176979351971517:0.13031452090796616] [0.0049520707448564138:0.124298601528293] [-0.008682077773658382:0.12584899134891656] [-0.019819744812083793:0.18030460168150586] [-0.026181339011319461:0.22076872563354721] [0.0038084361950181146:0.23376671194301707] [-0.012493699126684974:0.22032230340909223] [0.0046279432541066756:0.2092137141982961] [-0.038104520995389697:0.2218718919016634] [0.0049288889041190663:0.22663844293033547] [0.0049714091946848216:0.20607499339283561] [0.0048512499305403516:0.16096529979502067] [-0.0043398512741680524:0.16309457675418007] [-0.010790981419880776:0.17402759132113713] [-0.03290322326350973:0.1662853588389647] [0.0051210614067148203:0.1410380564460709] [-0.012917960179229096:0.096885761554214953] [-0.0060154658282270375:0.097899038259302976] [-0.038695254661680077:0.11133376003126856] [0.0041054003070759675:0.11177615392410453] [-0.0075381355632253245:0.10078860729885004] [-0.0070174046484419552:0.077970539314353784] [-0.00079085547519774924:0.057961002886103181] [-0.0035358470898482737:0.072452936738194057] [-0.012105466823640823:0.1136194737837971] [0.0038669428555179117:0.14169548598039886] [0.0040794521644288472:0.1536822482709842] [-0.006593136030387893:0.14960848158623749] [0.0040430150413648227:0.12957856367929332] [0.0035403688610467386:0.094725247012775238] [-0.0084613963160255802:0.064207919244825468] [-0.0081609482487111432:0.063366978350065925] [-0.0032820554542423706:0.060253277573096155] [0.0044438817701002078:0.082176562223852875] [0.0012964498810255989:0.094770384760012677] [-0.0061499933824035171:0.098874775646956334] [0.0042954070743730938:0.093352349806995902] [0.0040816035466283403:0.097240615856510643] [-0.02624680406885789:0.10471565375680751] [-0.027295513766533133:0.12070809665768327] [-0.0027221478193070205:0.12516872354393527] [-0.01060955328373279:0.15559371431998639] [0.0033175478468469221:0.21296672914265291] [-0.00065123163278287585:0.24375159334426311] [0.0030317037312548993:0.24765591918236016] [-0.0226159313145506:0.22400175422798307] [0.0006908871355725669:0.17321885770475509] [-0.0039335153166570897:0.095100297729771521] [-0.11160661458756001:0.080843138322981567] [-0.039186026769763717:0.11247745327244121] [-0.0009942668093760724:0.18889705082885083] [-0.0010326947784574936:0.25885671138800809] [0.0002381398738714132:0.31717933886419186] [0.0012236903193504841:0.33943138017321356] [-0.0044500479899030696:0.32427038053799606] [-0.021296880726502713:0.27047556473054274] [-0.064197243542264262:0.18661574705929551] [-0.0079018877968884925:0.17433943383215098] [-0.10828440368135446:0.14325095896131207] [-0.00073555421510265186:0.19185550353054615] [0.0021432547199266997:0.24803250020199791] [0.0023794719173075556:0.27436559101771857] [-0.00078020051272543545:0.27021288187666542] [0.00011832800564107136:0.24803979198613257] [0.0022410733908313674:0.20483465700155062] [0.0019504936499978715:0.21427933638137636] [-0.051001939691148114:0.22288074422484525] [-0.018682669187282657:0.20593578852766922] [-0.052655821616223029:0.16323605837308727] [-0.0040732545537163611:0.16081979573671346] [-0.029758972050914718:0.1461306078053459] [0.0023883846281978261:0.11606918831524578] [0.0024411299923958402:0.079615677737240334] [-0.0038740862586799964:0.095105704471509983] [0.0019930474541450258:0.11393957772508369] [0.0021235349141831236:0.11980052804175637] [0.0019029833518075967:0.11340160542886152] [-0.0014264266905109971:0.094723231651568249] [0.0016843039969231673:0.063733542952482528] [-0.0026793173357856801:0.059654278316369748] [-0.030362931626293083:0.057962235647734901] [-0.0026452154327921145:0.057555643763079249] [0.002165276071274664:0.058955371021062242] [0.0018984951469709133:0.076898171967614198] [-0.003624890287578023:0.097182298747732043] [0.0013580786391038332:0.10512763360205951] [-0.0054651469687937637:0.099793155948663614] [-0.01166764996050379:0.081624781586939324] [-0.01984407446638848:0.054926916316211744] [-0.060996414750408401:0.12031320389823454] [0.0016961147830149537:0.16783372783906225] [-0.0030737865020702502:0.19498733759075462] [-0.0067135681892576612:0.23799814365451649] [-0.023634527845035603:0.2896498613049755] [0.0013550290060128387:0.30663605617331319] [0.0013973020768294031:0.28890881479815395] [-0.00027062512776419124:0.237021286780632] [-0.015987196069526848:0.15029952865492466] [-0.015349570990711379:0.12025790851169556] [-0.060426948111708116:0.11550552292600916] [-0.016120365795835173:0.098789317467571539] [-0.010235332198051023:0.078170173457950826] [-0.012455749868008884:0.10978417265398263] [-0.025020553476711109:0.12616416633796601] [0.0012127802955110619:0.12879533444265967] [-0.0051275826673551845:0.11768333901895274] [0.00054401264547740392:0.12232219924639379] [0.0010068635240000554:0.12221735948806869] [-0.0023953201039263231:0.1062750115294173] [-0.016498489871123501:0.1252380279009524] [-0.012355861252360507:0.13206841715381593] [-0.0093968790933875255:0.12303598307131564] [0.00093535107924573634:0.10392012310653062] [0.00061811014220658315:0.078108400435141251] [-0.017367833024771621:0.049898186049597754] [-0.0056755189501794256:0.055763301993892581] [-0.01243140762811328:0.070598451415725225] [0.0012411150127076209:0.077370798363037008] [0.00056423287432469209:0.087274470486576786] [0.00078088189954914598:0.10056143054003906] [-0.011390532969103235:0.10232594730879092] [-0.0012128793549611005:0.092529213051563072] [-0.0026413060642560731:0.071389319840187149] [-0.020488253346139945:0.048581161201404516] [-0.0042002753663586741:0.05681385121945292] [-0.021709792854284007:0.079683717985384109] [-0.0032936213163321272:0.098939746533783152] [0.00071067567187494134:0.11598943850744448] [-0.0052449962202440288:0.12256923032380883] [0.00084721696005720065:0.11681980721714229] [-0.011300465933334447:0.096873758831272652] [-0.00084645594799193612:0.084770682900724287] [0.00088915262739772062:0.071615681841149151] [-0.0191869202867666:0.055838951454649753] [-0.036766017070947683:0.053494171156852476] [-0.022987686877231767:0.050674719936041952] [-0.016229222043568598:0.060116523564355935] [0.0007850531842702762:0.093072419945450749] [-0.0087251705302088603:0.1141789000144611] [0.0004184854256584768:0.12284760884095154] [0.00053400083072716866:0.13286841785174219] [-0.024514188636140109:0.16463904036296106] [-0.040797325413141856:0.17612772863826678] [-0.014315472141303362:0.1899465569423103] [-0.037648003055457735:0.17535885646008925] [2.0187302537523e-05:0.17469277179302128] [-0.010011975491459695:0.20378158686763248] [-0.0030590797096746599:0.20921306885876476] [-0.0021788323446417057:0.19143747621097834] [-0.0020394244968069959:0.14946326815429428] [-0.00084802422927732939:0.083921772884652746] [-0.0080529147635586811:0.051983696274353772] [-0.043840729768365942:0.051827156639037697] [-0.0025519041564133452:0.051607773185401627] [0.00044291520175484124:0.051529314455959062] [-0.0071274604740513463:0.084021754068453289] [-0.00033971571498178291:0.1071760683460895] [0.00040879015707089153:0.11914915834490572] [-0.0032530531433390213:0.11783208702282293] [-0.013199318339145907:0.10260157724320738] [-0.00035226608736489798:0.089303774221476215] [-0.015713889459076178:0.071897626371458426] [-0.066207034468601295:0.08816437184349156] [-0.0065592430199803986:0.13197960924861721] [-0.023867458532691163:0.16651139817310068] [-0.0092352005723556618:0.20050728283975194] [-0.0023657222990455299:0.22243521415367457] [0.00011187721140416261:0.22835338943216388] [-0.0044242142921135132:0.21705481513650116] [-0.00056412489628402827:0.18390646995661253] [-0.012975832920378228:0.19191815754579317] [-0.015223239651987552:0.20206084046943296] [-0.064747841063291012:0.18959646338490577] [-0.031245908990020548:0.16744385363860997] [-0.02557274004910149:0.13634171021570063] [-0.045265644887759936:0.096404237420778249] [-0.022709451134976955:0.12151978000499895] [-0.062414855415011371:0.27533337923955525] [0:1] [0:1] [0:1] [0:1] [0:1] [0:1] [0:1]
tree_sizes=11030 10608 15273 13668 11136 15840 12925 11825 14581 12915 12034 17866 16784 13910 14333 13923 14127 14469 15383 15180 13993 15361 14982 14448 15270 13906 16731 13899 14029 15342 13776 12383 16978 13800 14145 17162 13978 12807 14021 15252 12908 14801 12745 12526 15148 13862 11982 17051 14862 11649 14274 13281 12822 16049 13250 14459 16635 13017 13403 15130 12258 16178 14587 12296 12531 14545 12497 14426 14579 14142 13052 16036 13580 12838 15243 12383 13057 17718 13465 13431 15661 12266 12524 16142 12793 15550 15650 13569 16115 14561 12852 14795 16251 13245 13917 16784 13600 14034 16902 13710 18947 16610 13930 13193 16590 12398 13637 16614 13794 13467 14974 15728 13684 14761 15308 14192 17530 12606 12917 15487 13679 13764 14692 11719 14030 16440 12674 13820 14962 13150 13170 11582 12378 14474 13836 13601 13586 10355 12474 16211 17364

Tree=0
num_leaves=102
num_cat=0
split_feature=901 558 14 802 564 1019 1019 580 1019 609 1022 582 553 21 694 1022 343 983 1019 702 1 1019 528 11 1019 557 452 1018 559 1018 1018 1022 692 1018 4 502 1018 1021 689 1010 1022 501 424 687 804 424 1019 463 588 995 834 1018 692 18 695 1018 827 1021 950 694 694 692 36 712 1022 805 897 898 560 841 558 897 452 1014 1009 1006 687 552 1000 902 918 243 560 691 901 899 548 547 992 351 4 8 528 577 1 8 1 1 2 379 22
split_gain=1676.84 1394.59 1288.54 1116.13 1185.06 1398.25 969.339 801.496 699.411 584.282 528.111 495.142 362.961 351.034 324.817 322.13 424.15 288.845 280.279 226.251 223.36 220.465 215.777 204.548 200.599 186.051 183.6 174.798 166.352 149.936 141.85 135.059 121.055 114.38 101.843 95.5431 89.5668 86.5471 179.323 86.5301 112.393 79.1745 78.3536 76.9716 72.2364 70.5486 66.7095 60.3164 58.3611 56.6045 52.2911 82.0845 52.0147 47.9338 45.9279 43.4895 39.1254 37.4603 50.2826 42.9196 37.4046 33.6079 32.0404 28.5473 28.3401 26.7493 24.812 21.6979 16.9556 13.0874 8.55087 22.2395 6.40158 5.21192 6.06106 4.68286 16.7511 2.30905 2.00097 1.73725 2.79704 1.63139 1.1381 9.66608 0.919679 0.819858 0.559374 0.524877 0.449291 0.132383 0.108841 0.0894491 1.36424e-12 1.13687e-13 5.68434e-14 5.68434e-14 2.84217e-14 1.42109e-14 1.42109e-14 7.10543e-15 3.55271e-15
threshold=0.048345903545129666 0.052024738997673785 0.050599621432172441 0.023284147481448896 0.090884927902284807 1.0000000180025095e-35 1.0000000180025095e-35 0.034371598910772051 1.0000000180025095e-35 0.026276435502377214 1.0000000180025095e-35 0.035572734263760335 0.03779675428032097 0.04749123296633638 0.062410978801368068 1.0000000180025095e-35 0.012790623503265869 0.0066287389946077862 1.0000000180025095e-35 0.024541509003238402 0.014977935361898625 1.0000000180025095e-35 0.09875832671047767 0.033118742922912413 1.0000000180025095e-35 0.061309683677830316 0.038185219584548839 1.0000000180025095e-35 0.047586894818197743 1.0000000180025095e-35 1.0000000180025095e-35 1.0000000180025095e-35 0.041283722104842206 1.0000000180025095e-35 0.037106860850669422 0.06513423804292022 1.0000000180025095e-35 1.0000000180025095e-35 0.038550693175001267 0.0014432988115153857 1.0000000180025095e-35 0.058898347801258889 0.030914355556339267 0.029373744533583001 0.022066985820752647 0.031108307714622287 1.0000000180025095e-35 0.030832913938129387 0.02672328044080707 0.0044656985371764506 0.030266040471124158 1.0000000180025095e-35 0.033709277565458697 0.033021828885403087 0.036610343366706585 1.0000000180025095e-35 0.019457676550584391 1.0000000180025095e-35 0.011868160776310756 0.059333115247698742 0.053464938036851789 0.035072937609163468 0.047250655537750576 0.021260824755699331 1.0000000180025095e-35 0.019776527415243713 0.014321037253788032 0.017091370493256843 0.059116248153553097 0.047529795033100695 0.050716861090830463 0.021576057833117095 0.030285933943789523 0.00092642442696841073 0.0018194050802959984 0.0054423160477746341 0.06063409387658774 0.057243014017406044 0.0016621042428241644 0.041888765630305837 0.019395383170697549 0.027417698231826836 0.045682647541073255 0.045404955551431279 0.011951072269032697 0.049870006916749234 0.049160711459637428 0.064047200831807441 0.0019284368308127014 0.036882635483036476 0.050469970941881243 0.047556865661174764 0.11427464682073248 0.054787730630511892 0.016521295756384786 0.035603145143028245 0.026599183927053804 0.050923033220758841 0.024927861643125247 0.030503795023968088 0.0039359153300549616
decision_type=2 2 2 2 2 2 2 2 2 2 2 2 2 2 2 2 2 2 2 2 2 2 2 2 2 2 2 2 2 2 2 2 2 2 2 2 2 2 2 2 2 2 2 2 2 2 2 2 2 2 2 2 2 2 2 2 2 2 2 2 2 2 2 2 2 2 2 2 2 2 2 2 2 2 2 2 2 2 2 2 2 2 2 2 2 2 2 2 2 2 2 2 2 2 2 2 2 2 2 2 2
left_child=1 2 8 4 5 11 36 54 9 10 13 19 42 52 25 16 46 35 30 23 100 -19 44 -3 39 29 27 -13 48 37 31 34 72 -21 -16 -18 53 60 -39 40 84 -24 -12 -15 -9 -42 63 55 67 -28 51 66 -1 69 65 -30 -34 59 -59 -52 -5 -50 -14 -6 -49 -7 -27 -11 -53 -2 82 -72 -31 74 -41 76 81 -33 -75 80 -77 -71 89 -84 -4 -81 -20 -17 -80 -22 -47 -73 93 -89 -94 98 -8 -26 -88 -32 -10
right_child=6 3 24 14 15 7 96 22 20 28 12 26 62 43 18 87 17 21 86 33 70 -23 41 -25 97 50 49 -29 47 32 99 77 56 -35 -36 -37 -38 38 -40 73 45 -43 -44 -45 -46 90 -48 64 61 -51 57 68 -54 -55 -56 -57 -58 58 -60 -61 -62 -63 -64 -65 -66 -67 -68 -69 -70 75 71 91 -74 78 -76 79 -78 -79 88 85 -82 -83 83 -85 -86 -87 95 92 -90 -91 -92 -93 94 -95 -96 -97 -98 -99 -100 -101 -102
leaf_value=-1.032331836617391 -1.0614096719605828 -1.1029009405706498 -1.1295213971985321 -1.1320665886767725 -1.0064306344537739 -1.0520917931352773 -1.1486123065832037 -1.011845692633329 -1.1486123066441134 -1.0283775977386778 -1.1278202270549356 -1.0748455431267052 -1.1275537063723229 -1.1424749378451164 -1.0283322712715632 -1.1344251984694005 -1.1249384393895074 -1.0808183388715602 -1.1329330319745838 -1.095458460532857 -0.99861230664411338 -1.1399957685313349 -1.1204853536550154 -1.1299794829944578 -0.99861230664411338 -1.0471112550853547 -1.0652306066938064 -1.0208917313970092 -1.1056389359121135 -1.051901779596939 -1.1486123017480179 -1.1173339741466808 -1.0155448083292165 -1.0580181025751139 -1.1324692580105669 -1.0806327855326183 -1.148612301930235 -1.1436421435834967 -1.0594105379710868 -1.0856807096788204 -1.1377875641622708 -1.0353515440054548 -1.0039328614783813 -1.039554985675071 -1.0817989243570476 -1.0059572466905378 -1.1486123060491018 -1.0410104277129333 -1.00350419097943 -1.0906874490348031 -1.1421171184482879 -1.0895658507923116 -1.0821294823644276 -1.1349489396560748 -1.0354975518746943 -1.0468265916619437 -1.1044500900779299 -1.0848423959924931 -1.1322260596455151 -1.1189150521709152 -1.0813727591904556 -1.0291697182301622 -1.0508030272420581 -1.087166809099213 -1.1093759115204276 -1.1444631738789608 -1.1280202058418063 -1.1272015446883474 -1.0187615600041486 -0.99861230664411338 -1.107046038620203 -1.005957246690538 -1.008208125273151 -1.1295213971985321 -1.1486123064555949 -0.99861230664411338 -1.0910780593137861 -1.1486123063273603 -1.1360374560994673 -1.0173623062948673 -1.042624845106892 -1.026352032190208 -1.0652972667577723 -0.99861230664411338 -1.1486123063470086 -0.99937323986316595 -1.1486123065304017 -1.1486123019086749 -1.1484286974350595 -1.0059572466905378 -0.99861230664411338 -0.99861230664411338 -1.1486123066185558 -1.1486123037970957 -1.1486123058162712 -1.1486123037569211 -1.1486123064173424 -0.99861230664411338 -1.1486123063673637 -1.1486123028741198 -1.1486123066441134
leaf_weight=70.633818864822388 9.0975848138332349 1829.4503045678139 7.3333334624767295 778.4493071436882 110.60966590046883 8.2193239927291852 122.32174101471901 938.33819979429245 15.200000226497652 8.1507249474525469 13.466666907072065 365.65701788663864 99.721742957830429 517.05122068524361 240.54976660013199 6.5787442326545706 2905.5952881574631 816.39519792795181 5.9526571929454795 1122.0261289179325 472.26668375730515 194.97391724586487 69.684061318635941 1127.0435174107552 13.37777826189995 9.6550728082656843 273.68116942048073 254.67053988575935 112.93816912174225 10.133333623409269 33.478262722492218 7.4599035382270804 13.326570510864256 249.31691524386406 26.017391800880432 126.99903818964958 10.747826665639876 112.67246988415718 143.86860445141792 7.4154591262340528 12.933333545923231 44.911112785339355 244.17198950052261 18.828020006418228 38.415460735559464 6.215459167957305 10.017391502857206 169.14203524589539 219.97392106056213 1080.3652513325214 2464.3894613087177 14.226087361574171 203.56136026978493 6.8309180140495291 11.139130890369414 43.555556833744049 173.30048698186874 69.520776212215424 287.63962164521217 216.85507836937904 38.171981781721115 303.57682251930237 15.744928210973738 12.151691317558287 16.651208341121674 168.71015417575836 509.904372215271 17.436715424060822 20.844445139169693 28.93333438038826 6.7362322211265591 6.2154591679573086 48.526571750640869 14.666666924953459 7.9043479561805725 8.7111114263534528 6.4888890385627738 28.22608745098114 7.4222223460674277 6.4000002145767203 6.1642514169216147 6.4888890981674185 6.1613529324531546 46.044446110725403 45.139131218194962 611.94881436228752 65.521740168333054 280.37392818927765 508.32657849788666 6.215459167957305 26.755556523799896 12.444444894790648 233.21739482879639 43.965219080448151 165.60000360012054 8.7739133834838849 19.713043808937073 13.06666713953018 53.843479186296463 8.6956525743007642 11.600000172853468
leaf_count=220 27 5436 19 2364 355 26 307 3022 38 26 35 1116 299 1401 748 20 8874 2476 17 3415 1518 516 223 3294 43 30 845 793 354 30 110 20 42 733 68 383 35 369 449 21 33 142 782 59 125 20 26 532 706 3173 7215 41 625 18 36 130 474 226 803 607 111 956 51 38 50 554 1622 48 65 93 22 20 154 38 20 28 18 72 19 20 19 20 20 148 115 1965 165 914 1288 20 86 40 584 130 436 26 50 42 137 27 29
internal_value=-1.09861 -1.10136 -1.07164 -1.10689 -1.09869 -1.0863 -1.02949 -1.03864 -1.05602 -1.06961 -1.09264 -1.09597 -1.04342 -1.11531 -1.12591 -1.11783 -1.11248 -1.11537 -1.08659 -1.10544 -1.00762 -1.09223 -1.02221 -1.11322 -1.13358 -1.12974 -1.07522 -1.0527 -1.03904 -1.11368 -1.06271 -1.05073 -1.07841 -1.08865 -1.0385 -1.12308 -1.00538 -1.12174 -1.0964 -1.13912 -1.09596 -1.08712 -1.01041 -1.13886 -1.0146 -1.03882 -1.02455 -1.0664 -1.02199 -1.08554 -1.13564 -1.12152 -1.0693 -1.00316 -1.13397 -1.08927 -1.0981 -1.13821 -1.123 -1.14024 -1.1297 -1.01839 -1.11709 -1.01442 -1.04714 -1.14017 -1.12652 -1.09572 -1.04748 -1.00184 -1.00083 -1.02917 -1.01576 -1.1469 -1.11815 -1.00104 -1.01722 -1.14207 -1.14773 -0.999966 -1.01685 -1.00369 -0.999473 -1.00648 -1.14594 -0.999559 -1.14792 -1.14848 -1.14825 -0.998708 -0.999997 -1.00106 -1.14861 -1.14861 -1.14861 -1.14861 -1.14861 -0.998612 -1.14861 -1.14861 -1.14861
internal_weight=22050 21206.2 3328.05 17878.1 12488.1 7581.63 843.846 1279.42 2657.49 2074.6 1183.18 6302.21 373.105 810.074 5390 4906.48 4176.74 4043.96 478.519 4327.84 582.884 1011.37 1091.35 2956.49 670.557 4911.48 1974.37 620.328 891.425 1318.45 344.427 302.253 245.287 1371.34 266.567 3032.59 701.812 1073.16 256.541 644.112 98.3768 114.595 257.639 535.879 976.754 45.9043 132.779 342.287 549.138 1354.05 3593.03 554.63 274.195 691.064 188.069 156.494 186.627 3038.4 357.16 2681.24 816.621 523.551 115.467 122.761 185.793 176.929 519.559 25.5874 35.0705 684.233 556.084 25.3961 58.6599 545.735 15.3198 675.135 41.9111 35.686 530.415 633.224 14.8754 35.4222 530.688 52.2058 52.4725 618.349 134.092 729.735 515.749 478.482 32.971 18.6599 723.157 324.339 398.817 128.139 142.035 26.4444 119.365 42.1739 26.8
internal_count=66150 63550 9873 53677 37685 22933 2600 4128 8129 6274 3472 18805 1167 2305 15992 14752 12668 12249 1390 12878 1855 2992 3512 8730 1744 14602 5927 1909 2802 3993 1045 908 700 4148 816 9257 2243 3293 818 1659 273 365 817 1460 3147 139 419 1066 1736 4018 10609 1758 845 2208 616 484 516 8851 1029 7822 2475 1662 350 393 582 580 1652 74 106 2190 1788 82 184 1386 41 2163 131 92 1345 2032 47 113 1706 168 134 1985 345 2084 1307 1538 106 60 2064 1044 1020 328 357 85 302 137 67
is_linear=0
shrinkage=1


Tree=1
num_leaves=99
num_cat=0
split_feature=528 987 1019 1022 467 903 565 1022 35 1020 686 433 1019 952 176 974 0 517 1018 498 563 1019 426 1017 1016 554 520 467 525 220 6 330 528 280 805 452 6 1020 554 919 1022 0 561 805 692 559 554 842 951 562 1022 495 557 1018 53 582 528 731 134 450 955 581 13 933 996 491 457 461 491 1011 693 527 521 691 519 994 1013 440 464 453 949 508 977 8 215 554 4 860 41 996 275 1 4 972 778 332 115 1
split_gain=1625.78 1442.89 790.375 663.265 659.079 676.108 732.639 544.754 529.938 521.346 532.879 464.769 514.752 2101.14 822.119 598.56 377.925 1287.73 351.216 344.236 533.836 283.716 227.833 219.186 223.135 205.833 193.854 186.302 162.732 155.078 173.511 136.093 134.01 130.023 121.83 113.126 92.3291 91.7863 90.6538 78.8076 74.9826 63.4057 62.948 62.3526 61.3206 72.6357 57.3363 62.045 56.4293 40.3901 78.7098 75.3022 39.1596 38.385 32.1333 27.2078 24.4115 22.2829 22.1378 20.9836 20.8342 20.0001 18.3252 15.6907 15.1508 13.8775 13.6736 13.1179 12.0423 11.3823 10.781 7.56257 21.3196 7.16838 6.2091 5.81545 5.43285 6.86154 5.12056 3.34593 1.70369 1.62965 1.55652 1.191 1.02184 0.856044 0.720237 0.716198 0.564809 0.418791 0.381869 0.22523 0.191805 0.191594 0.1414 0.103282 4.54747e-13 1.42109e-14
threshold=0.030684762792731541 0.0047544724794346309 1.0000000180025095e-35 1.0000000180025095e-35 0.048660612482973251 0.018715990503765972 0.031217840816080391 1.0000000180025095e-35 0.023535235902210187 1.0000000180025095e-35 0.033410146643354427 0.034604153313289587 1.0000000180025095e-35 0.01263132955077073 0.017734980983334831 0.0099537629351737454 1.0000000180025095e-35 0.062342053069939292 1.0000000180025095e-35 0.050003831902758991 0.048153717445793526 1.0000000180025095e-35 0.028656908486508082 1.0000000180025095e-35 1.0000000180025095e-35 0.047350674708868327 0.10490052962309096 0.028246899496151712 0.030297995317859022 0.021837864451816829 0.033641238591893954 0.027176683138875026 0.10918551496462149 0.023108718037666842 0.019582251598371746 0.039838332977531622 0.041469191674546053 1.0000000180025095e-35 0.047141801841884746 0.014262731604325448 1.0000000180025095e-35 1.0000000180025095e-35 0.091765196969070983 0.029810922434411805 0.047819612993014939 0.056814337862155326 0.058954138073802585 0.031108904629351685 0.014534613244216928 0.032794868886345065 1.0000000180025095e-35 0.027746660684872027 0.044751343679805607 1.0000000180025095e-35 0.04773865946963237 0.038691146998529984 0.091944407204923195 0.024771952373083491 0.015027649084724813 0.041872463576791058 0.0053712898356480599 0.037212595468235965 0.035431208527896822 0.011237886920813586 0.0035383726168635482 0.033309567126689442 0.030225673078252722 0.029178984549737056 0.044155425565546261 0.0036555175489163673 0.050103882543517254 0.12595490725990638 0.11075551689902284 0.017740351974647742 0.095135937871652546 0.0058325948470012929 0.0063624503310859117 0.032150067679248578 0.030336921882280852 0.027230052746171584 0.0060804467993234509 0.060422055861368291 0.0071064617304474218 0.021670028872607185 0.040194893391811697 0.046703399705539356 0.024117741990553988 0.01405662777649363 0.038657610558478002 0.0048060387826261318 0.035771445246900506 0.051809699137421387 0.04949663215111768 0.013734254058137996 0.014428570087487201 0.033738775595777863 0.046979051863764297 0.049276966569805562
decision_type=2 2 2 2 2 2 2 2 2 2 2 2 2 2 2 2 2 2 2 2 2 2 2 2 2 2 2 2 2 2 2 2 2 2 2 2 2 2 2 2 2 2 2 2 2 2 2 2 2 2 2 2 2 2 2 2 2 2 2 2 2 2 2 2 2 2 2 2 2 2 2 2 2 2 2 2 2 2 2 2 2 2 2 2 2 2 2 2 2 2 2 2 2 2 2 2 2 2
left_child=21 2 4 9 5 6 7 34 61 11 25 12 15 14 -14 22 17 -8 76 20 44 49 -3 24 41 85 33 -9 -18 35 -31 -17 55 53 -2 -27 -26 40 66 70 74 -7 86 58 54 -46 69 -48 -15 78 52 91 90 73 -10 62 94 -40 -4 -55 -58 -5 -21 79 -63 -59 -12 -65 -20 -22 -25 72 -66 -6 -28 -41 77 -13 80 -60 -1 -73 -81 -39 -82 97 -34 -53 -68 -70 -51 -52 -23 -78 -35 -86 -97 -11
right_child=1 3 43 8 26 23 16 27 19 10 38 18 13 48 -16 31 28 -19 68 32 46 92 -24 39 36 29 37 -29 -30 30 -32 -33 42 56 -36 -37 -38 83 57 75 -42 -43 -44 -45 45 -47 47 -49 -50 50 51 87 -54 59 -56 -57 60 65 63 -61 -62 64 -64 67 71 -67 88 -69 89 -71 -72 81 -74 -75 -76 -77 93 -79 -80 82 84 -83 -84 -85 95 -87 -88 -89 -90 -91 -92 -93 -94 -95 -96 96 -98 -99
leaf_value=-1.0230308762515097 -1.0085926200608142 -1.1154230861701857 -1.0755666700749911 -1.0867981628925614 -0.99996106036199239 -0.99861227116515894 -1.00932694874289 -1.0021181143098312 -1.1289486417952168 -1.148612271165159 -1.0569456052573476 -1.0816292066121422 -1.0204979867880726 -1.0477688578309015 -1.1418011426299268 -1.139030702897333 -1.0514243193903294 -1.1199745825781295 -1.0609004076583322 -1.1454944741363584 -1.0543785846580653 -1.1391052291011909 -1.0914793922155526 -1.0634270874687271 -1.1289769429168111 -1.0939599001107256 -1.0960742013623337 -1.1439068346278398 -1.1359667201631787 -1.0966590585257872 -1.0476127749105564 -1.1090517960508566 -0.99861227116515894 -1.1389182346821072 -1.0883492552012892 -1.0253331033994584 -1.0075560534474086 -0.99861227116515894 -1.0853095203514125 -1.0867596827223747 -1.0168414384795206 -1.1108863684565911 -1.1386627401782321 -1.0216184069222747 -1.0122764034131784 -1.1070228091075263 -1.1047072467124404 -1.0252865414448418 -1.0022230424083567 -1.0098494818812662 -1.0105440895807698 -1.148612271165159 -1.0991214374488392 -1.148612271165159 -1.0133181540545813 -1.0400616531985174 -1.1195800138681844 -1.0058624295255749 -1.1132528415910938 -1.0253979863407885 -1.0447159268772879 -1.065977542127245 -1.0635903667061417 -1.0491859882497085 -1.0097414223950056 -1.0669843649804569 -1.148612271165159 -1.136979790484508 -1.0104246092425222 -1.0019431759151372 -1.0001426486252452 -1.0225848747195228 -1.102916908211917 -1.0461031931563507 -1.1423725547076538 -1.148612271165159 -1.148612271165159 -1.1340484816176402 -1.040612271808889 -1.1485755922338643 -1.0130737752303345 -0.99912847845547492 -1.1321804398230289 -1.0230308762515097 -1.0043878489475193 -1.1297225377976965 -1.0163687543236886 -1.1289042423324898 -1.1289042423324898 -0.99861227116515894 -0.99861227116515894 -0.99861227116515894 -1.148612271165159 -1.1389918221916209 -1.148612271165159 -0.99861227116515894 -0.99861227116515894 -1.148612271165159
leaf_weight=7.6444445848464957 280.24638167023659 1345.0164766609669 10.67826125025749 7.7652176916599265 203.83285334706306 13.200000196695326 290.77005314826965 26.622222632169724 186.13044345378876 100.5632888674736 7.200000166893008 8.9574881792068499 167.6628053188324 76.752658993005753 836.86573457717896 1358.8589915633202 58.03188544511795 2748.8252389431 8.2086958587169629 211.68793341517448 10.824154853820799 6.3111113309860221 3801.6638970375061 7.0434784889221183 18.334300339221954 84.534302532672882 7.9942032098770133 178.51691460609436 2970.2146275639534 852.30534186959267 228.71401542425156 524.7662028670311 22.00000032782555 6.1893723011016837 57.746861755847931 207.33430346846581 107.19130620360374 14.400000214576723 9.4782612323760969 6.7903383970260611 15.026087254285811 265.6000103354454 12.060870200395582 9.9217393398284894 30.366184115409851 60.592272967100143 32.798069000244141 98.276330560445786 596.76522681117058 8.215459078550337 7.8222223520278922 18.977778464555744 10.911111563444136 7.0067636668682081 6.2086957693099967 6.6328504085540763 14.466667264699934 329.94783154129982 6.787439912557601 6.8173914551734924 25.987440258264542 10.165217727422712 7.0570050477981559 7.2415460944175747 94.620291531085968 9.5555557906627637 9.022222548723219 10.315942496061323 7.8154590725898734 236.0415495634079 151.14203128218651 7.6173914670944205 6.565217673778533 8.7797103524208051 76.926573574542999 8.6299520730972272 30.407730638980865 20.599034577608109 7.7777779400348654 1635.8164967298508 12.837681382894514 265.31304746866226 14.605797648429869 7.6444445848464957 7.9043479561805716 6.3526572585105887 7.7130436301231375 6.0888890922069541 6.0888890922069541 188.0000028014183 94.800001412630081 8.0000001192092878 33.288890093564987 6.2367152571678153 9.5903385579586011 189.2000028192997 184.40000274777412 6.7768118977546683
leaf_count=20 715 4145 31 23 511 33 742 67 590 324 20 26 438 211 2680 4332 160 8572 23 689 30 20 11268 20 58 252 24 570 9490 2541 628 1600 55 20 170 545 273 36 28 20 39 814 39 26 78 185 100 259 1503 21 20 61 33 23 16 18 45 837 21 18 71 29 20 20 242 27 29 33 20 594 379 20 20 24 248 28 98 65 21 5304 33 664 46 20 20 20 20 19 19 470 237 20 107 20 31 473 461 22
internal_value=-1.09861 -1.10089 -1.11573 -1.08955 -1.10884 -1.11233 -1.11687 -1.06123 -1.0561 -1.09363 -1.06952 -1.09862 -1.10062 -1.07574 -1.12155 -1.10656 -1.12184 -1.10939 -1.03404 -1.07668 -1.05733 -1.01772 -1.09774 -1.06047 -1.08065 -1.0829 -1.04675 -1.12551 -1.13435 -1.07755 -1.08628 -1.13068 -1.12458 -1.02401 -1.02222 -1.04521 -1.02529 -1.09943 -1.01594 -1.01348 -1.1198 -1.10557 -1.04233 -1.1466 -1.10922 -1.07539 -1.01843 -1.04516 -1.00741 -1.00865 -1.03041 -1.08992 -1.00905 -1.00712 -1.12522 -1.13983 -1.09206 -1.00969 -1.14733 -1.08785 -1.07149 -1.00735 -1.14285 -1.14779 -1.00575 -1.00758 -1.11365 -1.10077 -1.00157 -1.00424 -1.00296 -1.00411 -1.01579 -1.00187 -1.13801 -1.12138 -1.13411 -1.11816 -1.00043 -1.14829 -0.999652 -0.999783 -1.14843 -1.00708 -0.999199 -1.14756 -1.00322 -1.14383 -1.14067 -0.999084 -0.999508 -1.00451 -1.1471 -1.14697 -1.14481 -0.998732 -0.998612 -1.14861
internal_weight=22050 21445.8 9288.93 12156.9 7593.57 7188.91 6610.97 543.132 1320.44 10836.5 1857.87 8978.58 8708.35 1678.05 1004.53 7030.31 6067.84 3039.6 270.225 928.389 661.238 604.18 5146.68 577.931 404.326 1486.58 404.662 205.139 3028.25 1372.89 1081.02 1883.63 267.152 282.671 337.993 291.869 125.526 121.991 371.293 173.606 99.9469 278.8 41.7739 1695.37 283.298 90.9585 377.94 131.074 673.518 564.58 154.815 40.8889 113.927 226.437 192.339 225.378 56.2338 348.982 1685.45 13.8242 40.4541 392.046 218.745 1674.77 384.281 339.503 22.3111 17.5575 204.024 246.866 158.186 374.116 101.186 212.613 84.9208 15.4203 66.201 29.5565 409.764 1657.21 401.986 272.93 1650.42 22.0444 394.342 113.693 29.713 25.0667 15.1111 195.815 103.015 15.8222 39.6 36.6444 15.7797 381.504 373.6 107.34
internal_count=66150 64584 28702 35882 23221 22111 20486 1522 3691 32191 5292 26899 26177 4832 3118 21345 18964 9314 722 2693 1852 1566 15413 1625 1178 4332 1110 637 9650 3966 3169 5932 841 743 885 797 331 367 960 447 311 847 114 5481 869 263 983 359 1714 1439 411 120 291 576 606 727 167 892 5455 41 116 998 709 5424 975 864 68 53 513 624 399 946 262 535 272 48 209 91 1028 5371 1007 684 5350 56 987 366 75 80 48 490 258 40 127 118 51 954 934 346
is_linear=0
shrinkage=1


Tree=2
num_leaves=142
num_cat=0
split_feature=1007 558 583 425 1016 1017 695 1018 0 695 1018 519 465 561 901 1009 1016 1018 556 553 1017 538 558 949 1020 1018 556 1017 1010 689 578 556 1019 522 1018 553 425 1020 5 508 1017 1016 18 954 206 1018 1021 0 689 692 698 834 578 1016 342 1018 1022 562 1017 694 1000 986 465 531 1019 0 833 468 692 435 557 1022 496 687 425 570 529 516 709 534 670 1017 574 821 579 816 879 902 529 854 890 1021 443 556 856 422 186 709 800 519 528 569 541 424 860 428 562 455 512 695 792 428 512 580 529 352 584 142 528 1022 189 700 360 344 698 352 173 550 804 715 640 990 972 2 218 440 1014 5 1 5 171
split_gain=2083.2 3217.89 1216.61 1175.04 647.251 636.567 623.576 590.136 429.275 415.721 635.887 393.58 313.849 327.732 286.962 322.063 291.605 272.039 268.809 268.308 233.488 381.627 248.943 209.695 325.114 208.675 267.804 203.815 200.147 189.198 235.078 187.354 184.109 184.211 177.367 171.558 167.278 164.222 284.171 148.857 146.686 132.041 123.064 211.518 112.349 111.478 100.736 97.8362 96.6198 90.149 88.6347 68.3498 68.0538 63.9659 63.5059 61.4826 60.0935 139.675 59.7024 59.1985 58.7165 57.3505 53.9452 53.1917 45.5125 45.1415 40.008 32.248 30.7338 30.1432 30.0359 77.8001 34.2548 33.797 28.5381 27.4386 26.4569 46.4164 23.9605 23.2221 21.5877 20.6473 32.5406 20.4013 19.4298 19.3343 19.1922 18.954 23.3495 18.8921 18.704 17.7215 16.7419 14.998 13.5268 11.028 19.0981 10.8932 10.3364 8.56947 34.9103 8.45192 6.99436 6.97029 9.74157 6.86319 5.90933 5.63497 5.34534 4.83556 4.47586 4.36794 4.28806 4.60196 2.8682 2.70157 1.62781 1.56704 1.11814 4.90428 5.21079 1.04192 3.30074 0.969584 0.831125 0.704763 0.495299 0.417612 0.398016 1.39481 0.370609 0.370582 0.300632 0.151775 0.124755 0.110242 0.0980471 0.080712 2.84217e-14 2.84217e-14 3.55271e-15
threshold=0.0059324957197534689 0.04828064985660234 0.030261563290976744 0.028903634527879141 1.0000000180025095e-35 1.0000000180025095e-35 0.034317725603290716 1.0000000180025095e-35 1.0000000180025095e-35 0.037458850185816621 1.0000000180025095e-35 0.073055475968233904 0.048233732400165104 0.08127070422172844 0.043601783690768579 0.014677361462743449 1.0000000180025095e-35 1.0000000180025095e-35 0.052961156371677955 0.048244358571940309 1.0000000180025095e-35 0.059802561561121799 0.071881374069178189 0.011633293438003102 1.0000000180025095e-35 1.0000000180025095e-35 0.073273978497655032 1.0000000180025095e-35 0.004498823128589167 0.037855574995425939 0.03313785149788772 0.072662760723212386 1.0000000180025095e-35 0.031265723983331606 1.0000000180025095e-35 0.052542410826897014 0.031870313033513141 1.0000000180025095e-35 0.047132130367964577 0.062259805006953113 1.0000000180025095e-35 1.0000000180025095e-35 0.027034477331172226 0.0091066171441095047 0.012435378161406154 1.0000000180025095e-35 1.0000000180025095e-35 1.0000000180025095e-35 0.054327717550596961 0.062469573547795053 0.029271493162527997 0.025002745851616961 0.047476886004897578 1.0000000180025095e-35 0.035183118043285264 1.0000000180025095e-35 1.0000000180025095e-35 0.072051730870306516 1.0000000180025095e-35 0.047407168499098061 0.01142520379872934 0.0065753604129047275 0.046146947824500961 0.067088071865293544 1.0000000180025095e-35 1.0000000180025095e-35 0.046062791485850782 0.043487379572333285 0.064056538541223895 0.02771394783374366 0.044751343679805607 1.0000000180025095e-35 0.02619399124925385 0.026431576071945878 0.027917589416809014 0.067060008793383641 0.093558036274885181 0.068677514216854904 0.022376115326393838 0.045011523856977133 0.027228297711510283 1.0000000180025095e-35 0.039315035641878972 0.033032971241350205 0.032428349989331397 0.019131802695076552 0.017990465933884019 0.028774263001292304 0.080133750084473598 0.01980750809409005 0.016258675753512922 1.0000000180025095e-35 0.031507170893082227 0.075366376839769447 0.018207480198387384 0.028752292219349811 0.013247655028561572 0.022717142398610179 0.016545503961396115 0.098125533791347266 0.10953249393069021 0.04216498229271972 0.069857153318804141 0.029528570605757806 0.019942468763232975 0.0321713182180976 0.076437009950837367 0.041524281190660699 0.029484093481402487 0.032316683774434057 0.012556662202049386 0.023483029827824905 0.06695546001192039 0.041800591223465536 0.0927906143356894 0.020129858847486762 0.029046987744299885 0.01144924703083448 0.033535908272926247 1.0000000180025095e-35 0.039352431059257849 0.047837206224847335 0.02471154015728411 0.037191653969588116 0.048262268300012588 0.036860913860495899 0.0088745840428496384 0.036304926043318593 0.047510027009019705 0.042305446657476389 0.018332061518474548 0.0055400331936001504 0.0078813881924731793 0.034712286810395371 0.035425429223332132 0.023879336848454117 0.01115052898189244 0.050015292344348448 0.051228226605174461 0.04586213143821713 0.010197556220712053
decision_type=2 2 2 2 2 2 2 2 2 2 2 2 2 2 2 2 2 2 2 2 2 2 2 2 2 2 2 2 2 2 2 2 2 2 2 2 2 2 2 2 2 2 2 2 2 2 2 2 2 2 2 2 2 2 2 2 2 2 2 2 2 2 2 2 2 2 2 2 2 2 2 2 2 2 2 2 2 2 2 2 2 2 2 2 2 2 2 2 2 2 2 2 2 2 2 2 2 2 2 2 2 2 2 2 2 2 2 2 2 2 2 2 2 2 2 2 2 2 2 2 2 2 2 2 2 2 2 2 2 2 2 2 2 2 2 2 2 2 2 2 2
left_child=1 37 6 4 5 12 7 28 11 18 59 40 13 -4 15 20 27 -14 45 139 22 49 41 24 32 42 65 55 29 44 -31 68 50 -34 115 -12 39 58 109 -13 106 56 62 -44 -3 -10 51 -28 54 63 -8 -30 76 -20 92 111 108 -58 70 -11 67 105 -24 97 -38 -27 -57 74 -7 98 118 72 -72 137 -23 -65 77 -6 -48 -56 116 82 -50 -51 -75 138 -69 88 -43 103 -71 -74 -25 -33 107 102 -97 -22 -62 114 -101 -96 -91 -29 -105 -21 -5 -18 -2 -39 -78 -17 126 -114 -54 -16 -26 -36 127 125 -121 128 -123 134 -113 -120 -103 130 131 135 -1 -117 -133 -42 -111 -130 -124 -73 -40 -9 -138
right_child=14 2 3 8 52 31 23 19 9 10 35 36 17 -15 34 16 94 -19 53 61 21 60 25 48 80 26 47 89 46 30 -32 93 33 -35 117 -37 64 38 85 -41 133 87 43 -45 -46 -47 78 -49 81 83 -52 -53 99 -55 79 66 57 -59 -60 -61 69 -63 -64 75 -66 -67 -68 86 -70 90 71 73 91 84 -76 -77 110 -79 -80 -81 -82 -83 -84 -85 -86 -87 -88 -89 -90 95 -92 -93 -94 -95 101 96 -98 -99 -100 100 -102 112 -104 104 -106 -107 -108 -109 -110 123 -112 124 113 -115 -116 121 -118 -119 119 120 -122 122 136 -125 -126 -127 -128 -129 129 -131 -132 132 -134 -135 -136 -137 140 -139 -140 -141 -142
leaf_value=-1.1280060947771351 -1.099002267404136 -1.145963893990362 -1.0960001111607873 -1.1477802252540885 -1.1205073623209065 -1.0193592411239218 -1.1304080343520639 -1.1486122881950571 -1.079483930422787 -1.1002524596327101 -1.1224408022249861 -1.0868446452894078 -1.1317922354812286 -1.0361443793992948 -1.1217096496328431 -1.1133115773761708 -1.0291432611805096 -1.0042820688635865 -1.0484538861211106 -1.0015597464908295 -1.0606780439211758 -1.0631741540621877 -1.1188876692680043 -1.0037459227777608 -0.9986122881950571 -1.1306165065155738 -1.0686031694708962 -1.052068783364255 -1.1265452224175938 -1.0884746523988951 -1.0323450808682302 -1.0965977558949442 -1.1257789739317392 -1.0082248038346016 -0.9986122881950571 -1.0012234518166678 -1.1159727175652436 -1.104210354398268 -0.9986122881950571 -1.1169523642203398 -0.9986122881950571 -1.0164629380710357 -1.0710429926294582 -1.1323047886433888 -1.0175187464465811 -1.1486122881950571 -1.0018774976428035 -0.9986122881950571 -1.026781604165921 -1.1486122881950571 -1.0728550906590211 -1.0109484021590751 -1.1342891869946425 -1.00185465780477 -1.1259612807802792 -1.1309322129433546 -1.1331371152406799 -1.0249349651625832 -0.9986122881950571 -1.1214822518601548 -1.0762650205964781 -1.1293940332798649 -1.1377155664752876 -1.1401823146453891 -1.1439921649059828 -0.9986122881950571 -0.9986122881950571 -1.1341198761708946 -1.129997711108863 -1.1180029215387168 -1.0371597730701452 -1.1486122881950571 -1.1467982074291849 -1.0438068283700395 -1.1158586926082963 -1.0495293895212146 -1.0951771727659054 -1.0085305342457447 -1.0869121043524841 -1.0506103511660612 -1.0762800041479699 -1.1486122881950571 -1.1407920298090608 -1.0443076518247036 -1.1353323553509951 -1.0880439923885539 -1.0726920420779433 -1.1342155785254786 -1.1027425492696632 -1.0126295556001537 -1.0615566096090439 -1.1183506146020332 -1.0790417346560655 -1.1444618253252512 -1.0637066271117823 -1.1191363052085574 -1.0353632863319091 -1.0047081194971941 -1.01802839761445 -1.0245034696365742 -1.1412760909150828 -1.0139116227433691 -1.0676122874812064 -1.1292491209184448 -1.0539229087686084 -1.0580950453639466 -1.1003346635527294 -1.0968598231425697 -1.1446425788664047 -1.1412673479088891 -1.1451166899461047 -1.147689826962714 -1.0580950461280521 -1.0085978162364546 -1.1480950411333608 -1.1374288559507988 -1.025130350470677 -1.0282684476911816 -1.1481613476518147 -1.1426350584702591 -1.0804523257577268 -1.1072737046785524 -1.1414715898441408 -1.1285429122425747 -1.1308558050365274 -1.1336928057501996 -0.99916182625401606 -1.1367850038420613 -1.141214448668489 -1.1228348734009388 -1.1484703044569944 -1.1395099955402341 -1.1482085536041955 -1.0083169291781489 -1.1486122881950571 -1.1486122881950571 -1.1486122881950571 -1.141106330928616 -0.9986122881950571 -1.1486122881950571 -1.1486122881950571
leaf_weight=2.2154589891433707 6.4415460824966422 17.237681746482849 256.84252178668976 768.12755224108696 16.243478685617447 42.737200200557709 504.06281650066376 60.133335202932358 178.30725386738777 522.03769785165787 34.886957883834839 1300.807781457901 184.56232276558876 2086.3923710584641 10.1816428899765 10.345893979072569 6.1140099763870221 54.087925642728806 582.51210364699364 47.498553335666656 9.3449279367923719 33.662803441286087 721.84349879622459 118.1748856306076 73.043482303619385 197.87246954441071 178.02319630980492 11.348792821168901 103.43961653113365 261.14010781049728 652.97491154074669 17.553623735904694 57.981644779443741 78.370052516460419 16.739131361246113 178.71981659531593 400.02126896381378 7.1971017420291892 45.347828596830368 599.85315865278244 11.565218031406404 27.636716425418854 283.67344170808792 279.94590032100677 1376.2493474781513 86.66666978597641 32.667634636163712 69.391308188438416 13.489855736494066 19.955556184053425 77.134302407503128 14.591305106878279 47.809663355350494 84.300487697124481 16.123671889305115 10.328502744436266 212.40193653106689 34.697586268186569 7.0000003874301902 885.10920187830925 12.620290428400041 11.877294957637785 804.39035719633102 10.830918073654173 227.26667502522469 6.6956525444984427 12.782609403133391 327.60773995518684 7.3574880957603446 46.234784454107285 7.7826090455055228 8.7111114263534528 402.64735549688339 37.025122582912445 108.71691179275513 36.399035423994064 6.8347828686237362 21.509179890155792 11.098551154136656 27.949759662151337 10.729469001293181 19.111111402511597 11.675362676382063 6.1275365352630606 6.8753625452518454 6.7835751771926871 13.228986114263533 6.3420291841030112 10.94782644510269 39.95072677731514 21.500484108924866 63.360388994216919 7.8743964135646811 241.98454803228378 6.4521742165088645 9.2927539944648725 25.396136552095413 124.67536905407906 19.228020340204239 7.7246380746364585 37.337199121713638 6.1004834175109854 6.7632853388786307 11.788406252861025 6.7497587800025931 6.0521741509437552 6.6193239092826834 6.1748794913291931 1575.5179169178009 6.215459167957305 13.059903681278227 148.46860173344612 7.0608699023723629 14.020290613174437 176.51980966329575 8.1642514467239362 6.2850244641304007 6.0695655047893515 101.23768448829651 7.6376814246177656 6.0280195772647858 6.6260871887207022 6.3932369351387051 6.8241548538207999 7.7130436301231375 9.1797104775905591 84.919811457395554 7.7198070287704459 6.1710146963596335 7.084058165550231 1607.6551111638546 10.030918180942534 1017.672493904829 6.1826090216636649 82.755558550357819 27.377778470516205 6.8000001609325436 6.0821258127689353 10.043478816747664 115.55555939674377 12.577778071165083
leaf_count=6 18 54 788 2071 45 136 1462 183 561 1508 112 4040 489 6652 32 28 20 177 1827 156 29 107 2051 386 240 576 567 37 299 838 2101 50 187 256 55 587 1184 23 149 1750 38 90 878 764 4485 278 107 228 43 61 229 47 144 276 44 31 552 111 23 2455 41 32 2214 28 731 22 42 989 20 149 24 28 1222 120 324 113 21 70 34 86 32 48 35 20 21 22 43 19 32 131 70 204 23 714 21 30 83 407 63 25 109 20 22 38 22 18 20 20 4554 20 36 387 23 46 450 24 20 19 314 24 19 20 20 22 20 29 279 24 19 20 4513 30 3045 20 266 78 19 19 33 360 35
internal_value=-1.09861 -1.08837 -1.07835 -1.08822 -1.06393 -1.05639 -1.05431 -1.04176 -1.10152 -1.0861 -1.1014 -1.11337 -1.04827 -1.04271 -1.12168 -1.11705 -1.07555 -1.10289 -1.05949 -1.11643 -1.12049 -1.09546 -1.12497 -1.08759 -1.09926 -1.11478 -1.08397 -1.10265 -1.03447 -1.0307 -1.04838 -1.12414 -1.1105 -1.05821 -1.14453 -1.02102 -1.10374 -1.14092 -1.09278 -1.09635 -1.14412 -1.13879 -1.12144 -1.10147 -1.01911 -1.10209 -1.08823 -1.04897 -1.04364 -1.0372 -1.12277 -1.11225 -1.1306 -1.04256 -1.02651 -1.13417 -1.14087 -1.11794 -1.14441 -1.11361 -1.11618 -1.03 -1.12881 -1.02469 -1.12612 -1.1263 -1.05775 -1.12339 -1.03561 -1.08122 -1.14486 -1.13447 -1.14119 -1.08017 -1.1034 -1.07032 -1.0813 -1.05671 -1.02344 -1.07818 -1.00972 -1.10943 -1.07968 -1.12411 -1.05814 -1.00837 -1.13174 -1.05411 -1.04094 -1.04893 -1.10009 -1.14293 -1.00845 -1.14122 -1.01324 -1.03645 -1.05781 -1.00861 -1.04111 -1.14116 -1.12126 -1.00806 -1.02059 -1.08293 -1.10182 -1.00795 -1.14737 -1.06317 -1.14446 -1.14374 -1.12796 -1.14477 -1.00486 -1.02518 -1.14515 -1.14735 -1.00071 -1.0065 -1.14804 -1.14346 -1.11521 -1.14758 -1.13875 -1.14671 -1.14686 -1.14696 -1.00015 -1.14839 -1.14785 -1.14299 -1.14844 -1.14804 -1.14812 -1.00199 -1.1481 -1.14725 -1.14684 -1.14553 -0.998612 -1.14861 -1.14861
internal_weight=22050 15270.4 12824.1 9091.54 3218.56 2891.52 3732.52 2710.52 5872.98 2552.54 1620.75 3320.44 2581.89 2343.23 6779.61 5637.73 431.771 238.65 931.787 241.117 5205.95 790.133 4415.82 1022.01 807.607 2541.84 451.983 300.929 2469.4 2307.6 914.115 309.633 717.549 136.352 1141.89 213.607 2527.95 2446.32 165.167 1900.66 792.495 1873.99 2089.85 563.619 1393.49 264.974 161.797 247.415 214.399 207.333 581.197 118.031 327.039 666.813 170.123 189.639 1829.06 247.1 2281.16 1407.15 582.8 65.428 1526.23 181.25 627.288 204.568 23.1111 483.216 50.0947 99.5836 2274.16 532.484 473.79 58.6937 142.38 47.23 57.6473 37.7527 43.7662 44.0734 90.058 44.2763 25.1652 26.0831 43.9005 62.1749 340.837 44.9266 38.5845 111.29 67.7353 466.008 126.049 259.538 130.843 81.4029 34.6889 134.02 31.8483 269.391 45.0618 118.554 46.714 29.887 18.5382 53.5507 774.747 12.2889 1581.96 102.992 19.8947 166.528 112.101 21.0812 224.329 1119.08 79.3285 22.8087 1741.67 124.083 13.6657 1108.9 32.3971 95.7952 156.182 110.417 91.0203 1617.59 1076.5 40.6329 1609.87 1035.87 1027.7 17.7478 88.971 33.5488 25.771 14.7932 55.3913 175.689 19.3778
internal_count=66150 46314 39189 27384 9926 9026 11805 8714 17458 7604 4662 9854 8106 7440 19836 16420 1300 666 2942 749 15120 2444 12676 3091 2426 7300 1393 871 7965 7478 2939 920 2134 443 3416 699 7705 7125 535 5790 2149 5376 5907 1642 4539 839 487 795 665 658 1691 346 900 2103 539 508 5235 663 6590 3963 1786 206 4265 577 1915 598 73 1463 156 323 6567 1638 1450 188 431 141 172 115 141 130 292 126 78 81 141 204 1032 141 122 363 219 1426 409 764 429 266 113 436 104 728 134 389 153 97 60 174 2091 40 4572 331 57 435 368 69 594 3342 260 74 4929 386 43 3310 94 308 407 343 299 4543 3216 117 4519 3099 3075 58 286 97 74 47 182 543 54
is_linear=0
shrinkage=1


Tree=3
num_leaves=123
num_cat=0
split_feature=900 558 41 802 564 1019 1019 1017 580 1019 609 1022 580 20 536 553 1016 1009 702 694 1 1017 1016 557 529 0 553 453 5 982 1017 1019 1017 1004 1017 1022 159 500 560 4 1022 803 698 24 1021 831 471 0 834 520 251 695 1013 1022 469 463 986 1021 689 694 1016 1021 688 38 560 316 898 692 1006 903 805 65 682 838 405 5 523 1010 687 228 558 897 841 837 52 558 803 1016 1012 803 578 691 200 517 837 529 560 902 949 689 434 358 1006 351 834 251 843 12 987 1007 155 209 974 284 694 902 40 212 370 902 92 246
split_gain=1396.11 1278.66 1159.15 1085.82 1082.28 1224.27 968.972 782.83 699.996 616.458 553.075 540.105 430.864 361.662 337.976 331.978 290.428 343.874 267.053 204.28 195.403 192.508 245.22 182.139 180.451 162.493 160.72 159.967 158.72 152.391 143.232 130.816 115.541 103.448 102.548 97.646 95.9223 90.1812 88.9975 81.2573 80.7585 78.4492 75.9153 73.6695 70.1687 67.6652 64.8836 58.5113 50.1839 48.9155 45.171 36.9006 36.1716 50.282 49.8378 36.1418 36.1057 35.5598 35.367 34.5592 57.0029 40.8197 34.074 32.277 29.9643 29.9512 26.1222 26.691 23.517 22.0435 21.3043 19.4825 17.7266 16.8328 21.4571 14.5297 14.0321 9.39344 9.06143 7.50112 6.50832 19.1944 6.28747 9.20262 5.73738 4.99045 4.12138 13.9563 4.13193 6.26666 3.5282 2.82292 1.7044 1.46057 1.29329 0.934766 0.708891 8.04651 0.61991 1.12134 0.56138 0.158514 0.118453 0.113887 0.110199 0.0634762 0.00775098 0.00340613 0.00140478 0.000802228 0.000408766 0.000237364 0.000160105 0.000131345 3.06241e-05 7.18334e-05 4.73039e-06 4.71846e-06 4.48298e-06 1.83259e-06 5.99154e-07 1.90686e-07
